{"learner":{"attributes":{"scikit_learn":"{\"_estimator_type\": \"regressor\"}"},"feature_names":[],"feature_types":[],"gradient_booster":{"model":{"gbtree_model_param":{"num_parallel_tree":"1","num_trees":"100"},"iteration_indptr":[0,1,2,3,4,5,6,7,8,9,10,11,12,13,14,15,16,17,18,19,20,21,22,23,24,25,26,27,28,29,30,31,32,33,34,35,36,37,38,39,40,41,42,43,44,45,46,47,48,49,50,51,52,53,54,55,56,57,58,59,60,61,62,63,64,65,66,67,68,69,70,71,72,73,74,75,76,77,78,79,80,81,82,83,84,85,86,87,88,89,90,91,92,93,94,95,96,97,98,99,100],"tree_info":[0,0,0,0,0,0,0,0,0,0,0,0,0,0,0,0,0,0,0,0,0,0,0,0,0,0,0,0,0,0,0,0,0,0,0,0,0,0,0,0,0,0,0,0,0,0,0,0,0,0,0,0,0,0,0,0,0,0,0,0,0,0,0,0,0,0,0,0,0,0,0,0,0,0,0,0,0,0,0,0,0,0,0,0,0,0,0,0,0,0,0,0,0,0,0,0,0,0,0,0],"trees":[{"base_weights":[7.5251535E-2,-8.768892E1,9.107125E1,-1.3474542E2,-4.2896416E1,4.4205334E1,1.3036263E2,-1.5779295E2,-1.1154554E2,-6.361194E1,-1.9041994E1,2.4710873E1,6.795251E1,1.0847235E2,1.5221935E2,-1.692686E1,-1.4601303E1,-1.2311718E2,-9.986441E1,-7.468172E1,-5.031465E1,-2.920867E1,-7.8701363E0,1.2055465E1,3.5533684E1,5.4625786E1,7.642678E1,9.873617E1,1.1969138E1,1.399507E1,1.6189533E1,-1.2725783E1,-1.1503734E1,-1.0466156E1,-9.326247E0,-8.092736E0,-6.768522E0,-5.550075E0,-4.4770684E0,-3.4446697E1,-2.3716139E1,-1.2821455E1,-2.7086217E0,6.0050263E0,1.7394245E1,2.9513577E1,4.0973564E1,4.9700217E0,5.916423E0,7.30537E0,8.198043E0,9.173304E0,1.0306342E1,-3.7929008E0,-3.2216377E0,-2.624874E0,-2.0790203E0,-1.5297427E1,-1.010904E1,-5.7486577E0,-4.9281847E-1,3.477623E0,7.842927E0,1.4396527E0,1.91034E1,2.508554E0,3.1953237E0,3.5700862E0,4.2276106E0,-1.5962843E0,-1.30625E0,-1.0759596E0,-7.966922E-1,-6.162711E-1,-4.851032E-1,-1.6338706E-1,-1.3336933E-1,2.460138E-1,3.9196475E0,6.469243E-1,9.2030764E-1,1.7795458E0,2.087915E0,5.3953357E-2,-4.4420078E-1,4.437452E-1,3.2679173E-1,-1.24893926E-1,3.157647E-2],"categories":[],"categories_nodes":[],"categories_segments":[],"categories_sizes":[],"default_left":[0,0,0,0,0,0,0,0,0,0,0,0,0,0,0,0,0,0,0,0,0,0,0,0,0,0,0,0,0,0,0,0,0,0,0,0,0,0,0,0,0,0,0,0,0,0,0,0,0,0,0,0,0,0,0,0,0,0,0,0,0,0,0,0,0,0,0,0,0,0,0,0,0,0,0,0,0,0,0,0,0,0,0,0,0,0,0,0,0],"id":0,"left_children":[1,3,5,7,9,11,13,15,17,19,21,23,25,27,29,-1,-1,31,33,35,37,39,41,43,45,47,49,51,-1,-1,-1,-1,-1,-1,-1,-1,-1,-1,-1,53,55,57,59,61,63,65,67,-1,-1,-1,-1,-1,-1,-1,-1,-1,-1,69,71,73,75,77,79,-1,81,-1,-1,-1,-1,-1,-1,-1,-1,-1,-1,-1,83,-1,85,-1,-1,-1,-1,-1,87,-1,-1,-1,-1],"loss_changes":[7.641983E7,1.0261212E7,8.64526E6,1.252308E6,1.2326985E6,9.9086075E5,1.205924E6,1.36018E5,1.48151E5,1.92899E5,1.3175088E5,1.6105575E5,1.049195E5,1.27998E5,1.2882E5,0E0,0E0,5.166E3,9.115E3,2.629075E4,1.50535E4,1.667525E4,1.4149023E4,1.7500117E4,1.9586188E4,5.531875E3,5.026E3,1.1486E4,0E0,0E0,0E0,0E0,0E0,0E0,0E0,0E0,0E0,0E0,0E0,1.1779688E3,1.6773594E3,1.7459492E3,1.8361279E3,1.1665195E3,1.2056875E3,2.4933125E3,7.639375E2,0E0,0E0,0E0,0E0,0E0,0E0,0E0,0E0,0E0,0E0,8.605469E0,1.0659082E2,1.2846191E1,6.499597E1,3.983008E1,2.1698828E2,0E0,4.8835938E1,0E0,0E0,0E0,0E0,0E0,0E0,0E0,0E0,0E0,0E0,0E0,2.5757109E1,0E0,1.080896E1,0E0,0E0,0E0,0E0,0E0,5.1766544E1,0E0,0E0,0E0,0E0],"parents":[2147483647,0,0,1,1,2,2,3,3,4,4,5,5,6,6,7,7,8,8,9,9,10,10,11,11,12,12,13,13,14,14,17,17,18,18,19,19,20,20,21,21,22,22,23,23,24,24,25,25,26,26,27,27,39,39,40,40,41,41,42,42,43,43,44,44,45,45,46,46,57,57,58,58,59,59,60,60,61,61,62,62,64,64,76,76,78,78,84,84],"right_children":[2,4,6,8,10,12,14,16,18,20,22,24,26,28,30,-1,-1,32,34,36,38,40,42,44,46,48,50,52,-1,-1,-1,-1,-1,-1,-1,-1,-1,-1,-1,54,56,58,60,62,64,66,68,-1,-1,-1,-1,-1,-1,-1,-1,-1,-1,70,72,74,76,78,80,-1,82,-1,-1,-1,-1,-1,-1,-1,-1,-1,-1,-1,84,-1,86,-1,-1,-1,-1,-1,88,-1,-1,-1,-1],"split_conditions":[8.30648E-3,4.150994E-3,1.2156439E-2,2.079532E-3,6.383376E-3,1.051786E-2,1.4287823E-2,1.10268E-3,3.124675E-3,5.361437E-3,7.396481E-3,9.341282E-3,1.1152043E-2,1.3279185E-2,1.5249214E-2,-1.692686E1,-1.4601303E1,2.725989E-3,3.694348E-3,4.775772E-3,5.877555E-3,6.884636E-3,7.891383E-3,8.85646E-3,9.927115E-3,1.0827052E-2,1.1762549E-2,1.2607433E-2,1.1969138E1,1.399507E1,1.6189533E1,-1.2725783E1,-1.1503734E1,-1.0466156E1,-9.326247E0,-8.092736E0,-6.768522E0,-5.550075E0,-4.4770684E0,6.555793E-3,7.123913E-3,7.639142E-3,8.074021E-3,8.556246E-3,9.034992E-3,9.578593E-3,1.0071595E-2,4.9700217E0,5.916423E0,7.30537E0,8.198043E0,9.173304E0,1.0306342E1,-3.7929008E0,-3.2216377E0,-2.624874E0,-2.0790203E0,7.5871E-3,7.819498E-3,8.01755E-3,8.128059E-3,8.395841E-3,8.712294E-3,1.4396527E0,9.213231E-3,2.508554E0,3.1953237E0,3.5700862E0,4.2276106E0,-1.5962843E0,-1.30625E0,-1.0759596E0,-7.966922E-1,-6.162711E-1,-4.851032E-1,-1.6338706E-1,8.181664E-3,2.460138E-1,8.457099E-3,6.469243E-1,9.2030764E-1,1.7795458E0,2.087915E0,5.3953357E-2,8.242216E-3,4.437452E-1,3.2679173E-1,-1.24893926E-1,3.157647E-2],"split_indices":[0,0,0,0,0,0,0,0,0,0,0,0,0,0,0,0,0,0,0,0,0,0,0,0,0,0,0,0,0,0,0,0,0,0,0,0,0,0,0,0,0,0,0,0,0,0,0,0,0,0,0,0,0,0,0,0,0,0,0,0,0,0,0,0,0,0,0,0,0,0,0,0,0,0,0,0,0,0,0,0,0,0,0,0,0,0,0,0,0],"split_type":[0,0,0,0,0,0,0,0,0,0,0,0,0,0,0,0,0,0,0,0,0,0,0,0,0,0,0,0,0,0,0,0,0,0,0,0,0,0,0,0,0,0,0,0,0,0,0,0,0,0,0,0,0,0,0,0,0,0,0,0,0,0,0,0,0,0,0,0,0,0,0,0,0,0,0,0,0,0,0,0,0,0,0,0,0,0,0,0,0],"sum_hessian":[9.567E3,4.87E3,4.697E3,2.374E3,2.496E3,2.143E3,2.554E3,1.188E3,1.186E3,1.335E3,1.161E3,1.178E3,9.65E2,1.279E3,1.275E3,5.95E2,5.93E2,5.91E2,5.95E2,7.26E2,6.09E2,6.07E2,5.54E2,5.44E2,6.34E2,3.78E2,5.87E2,6.9E2,5.89E2,5.69E2,7.06E2,3.81E2,2.1E2,3.36E2,2.59E2,3.78E2,3.48E2,3.1E2,2.99E2,3.08E2,2.99E2,2.82E2,2.72E2,2.56E2,2.88E2,3.04E2,3.3E2,1.87E2,1.91E2,3.74E2,2.13E2,2.72E2,4.18E2,1.14E2,1.94E2,1.56E2,1.43E2,1.45E2,1.37E2,1.14E2,1.58E2,1.09E2,1.47E2,1.08E2,1.8E2,1.12E2,1.92E2,7.1E1,2.59E2,1.07E2,3.8E1,1.02E2,3.5E1,7.4E1,4E1,3.7E1,1.21E2,3.5E1,7.4E1,7.6E1,7.1E1,1.1E2,7E1,3.8E1,8.3E1,3.8E1,3.6E1,4E1,4.3E1],"tree_param":{"num_deleted":"0","num_feature":"1","num_nodes":"89","size_leaf_vector":"1"}},{"base_weights":[-7.514799E-1,-7.879576E1,8.2436905E1,-1.2083422E2,-3.739559E1,4.0481865E1,1.17350655E2,-1.414211E2,-9.901745E1,-5.6295074E1,-1.5961544E1,2.4161789E1,6.2822144E1,9.8969864E1,1.3794658E2,-1.517909E2,-1.3045905E2,-1.0915988E2,-8.8469955E1,-6.617426E1,-4.4025417E1,-2.6127655E1,-7.404088E0,1.3835837E1,3.5105568E1,5.185248E1,6.950043E1,8.822605E1,1.08263084E2,1.2842155E1,1.4662059E1,-1.5745769E1,-1.4468778E1,-1.3481488E1,-1.2404941E1,-1.1365096E1,-1.031391E1,-9.227898E0,-8.184249E0,-7.05267E1,-5.820236E0,-4.8812183E1,-3.9298139E0,-2.9809744E1,-2.1179815E1,-1.27858095E1,-2.541817E0,7.0661063E0,1.8312677E1,2.9959648E1,3.894488E1,4.6539636E0,5.555368E0,6.545598E0,7.3034973E0,8.359767E0,9.319747E0,1.0182919E1,1.12565155E1,-7.369317E0,-6.684485E0,-5.154014E0,-4.5712523E0,-3.1908715E0,-2.7322364E0,-2.2513905E0,-1.8069147E0,-1.5028592E0,-1.0474118E1,-5.5522995E0,-2.5128672E-1,5.4244623E0,1.0839634E0,1.6049599E1,2.1616595E0,2.7487285E0,3.1572983E0,3.6956975E0,4.1218424E0,-1.1288519E0,-9.589872E-1,-6.6629887E-1,-4.441626E-1,-2.2641495E-1,2.4063678E-1,3.6402395E0,6.5368974E-1,1.3693554E0,1.7123402E0,-1.1343308E-1,1.4240205E-1,4.4509646E-1,2.6270697E-1,-2.9740286E-1,3.292012E-2,2.7628763E-2,-8.262383E-2],"categories":[],"categories_nodes":[],"categories_segments":[],"categories_sizes":[],"default_left":[0,0,0,0,0,0,0,0,0,0,0,0,0,0,0,0,0,0,0,0,0,0,0,0,0,0,0,0,0,0,0,0,0,0,0,0,0,0,0,0,0,0,0,0,0,0,0,0,0,0,0,0,0,0,0,0,0,0,0,0,0,0,0,0,0,0,0,0,0,0,0,0,0,0,0,0,0,0,0,0,0,0,0,0,0,0,0,0,0,0,0,0,0,0,0,0,0],"id":1,"left_children":[1,3,5,7,9,11,13,15,17,19,21,23,25,27,29,31,33,35,37,39,41,43,45,47,49,51,53,55,57,-1,-1,-1,-1,-1,-1,-1,-1,-1,-1,59,-1,61,-1,63,65,67,69,71,73,75,77,-1,-1,-1,-1,-1,-1,-1,-1,-1,-1,-1,-1,-1,-1,-1,-1,-1,79,81,83,85,-1,87,-1,-1,-1,-1,-1,-1,-1,-1,-1,-1,89,91,-1,-1,-1,93,-1,-1,-1,95,-1,-1,-1],"loss_changes":[6.2677416E7,8.664414E6,6.840298E6,1.09582E6,1.01628875E6,7.728815E5,9.517E5,1.2445E5,1.19035E5,1.58786E5,1.02287875E5,1.3839744E5,6.203625E4,1.25339E5,8.0314E4,3.22E3,6.97E2,4.746E3,7.4685E3,2.146725E4,1.1613625E4,9.170125E3,1.67408E4,1.9085242E4,1.060825E4,4.1591875E3,3.13875E3,6.7505E3,8.466E3,0E0,0E0,0E0,0E0,0E0,0E0,0E0,0E0,0E0,0E0,5.7675E2,0E0,1.215E2,0E0,7.2578125E2,5.60125E2,1.4187148E3,2.329318E3,1.5146777E3,2.5018047E3,1.6521875E2,4.3125E0,0E0,0E0,0E0,0E0,0E0,0E0,0E0,0E0,0E0,0E0,0E0,0E0,0E0,0E0,0E0,0E0,0E0,1.9257812E0,1.5051318E2,1.916485E2,3.3148877E2,0E0,3.4740234E2,0E0,0E0,0E0,0E0,0E0,0E0,0E0,0E0,0E0,0E0,6.552561E1,4.6626465E1,0E0,0E0,0E0,9.951094E0,0E0,0E0,0E0,2.6319637E1,0E0,0E0,0E0],"parents":[2147483647,0,0,1,1,2,2,3,3,4,4,5,5,6,6,7,7,8,8,9,9,10,10,11,11,12,12,13,13,14,14,15,15,16,16,17,17,18,18,19,19,20,20,21,21,22,22,23,23,24,24,25,25,26,26,27,27,28,28,39,39,41,41,43,43,44,44,45,45,46,46,47,47,48,48,49,49,50,50,68,68,69,69,70,70,71,71,73,73,84,84,85,85,89,89,93,93],"right_children":[2,4,6,8,10,12,14,16,18,20,22,24,26,28,30,32,34,36,38,40,42,44,46,48,50,52,54,56,58,-1,-1,-1,-1,-1,-1,-1,-1,-1,-1,60,-1,62,-1,64,66,68,70,72,74,76,78,-1,-1,-1,-1,-1,-1,-1,-1,-1,-1,-1,-1,-1,-1,-1,-1,-1,80,82,84,86,-1,88,-1,-1,-1,-1,-1,-1,-1,-1,-1,-1,90,92,-1,-1,-1,94,-1,-1,-1,96,-1,-1,-1],"split_conditions":[8.395841E-3,4.20298E-3,1.2156439E-2,2.164345E-3,6.436811E-3,1.0636484E-2,1.4412184E-2,1.166079E-3,3.180427E-3,5.424427E-3,7.325374E-3,9.578593E-3,1.1206056E-2,1.3201801E-2,1.5385673E-2,6.37396E-4,1.676978E-3,2.725989E-3,3.836389E-3,4.960663E-3,5.946857E-3,6.949388E-3,7.819498E-3,8.909965E-3,1.0071595E-2,1.0892816E-2,1.162379E-2,1.272054E-2,1.3715509E-2,1.2842155E1,1.4662059E1,-1.5745769E1,-1.4468778E1,-1.3481488E1,-1.2404941E1,-1.1365096E1,-1.031391E1,-9.227898E0,-8.184249E0,4.591009E-3,-5.820236E0,5.68122E-3,-3.9298139E0,6.69173E-3,7.196909E-3,7.5871E-3,8.074021E-3,8.777687E-3,9.277062E-3,9.786788E-3,1.0390514E-2,4.6539636E0,5.555368E0,6.545598E0,7.3034973E0,8.359767E0,9.319747E0,1.0182919E1,1.12565155E1,-7.369317E0,-6.684485E0,-5.154014E0,-4.5712523E0,-3.1908715E0,-2.7322364E0,-2.2513905E0,-1.8069147E0,-1.5028592E0,7.692156E-3,7.95394E-3,8.128059E-3,8.556246E-3,1.0839634E0,9.034992E-3,2.1616595E0,2.7487285E0,3.1572983E0,3.6956975E0,4.1218424E0,-1.1288519E0,-9.589872E-1,-6.6629887E-1,-4.441626E-1,-2.2641495E-1,8.30648E-3,8.457099E-3,6.5368974E-1,1.3693554E0,1.7123402E0,8.242216E-3,1.4240205E-1,4.4509646E-1,2.6270697E-1,8.181664E-3,3.292012E-2,2.7628763E-2,-8.262383E-2],"split_indices":[0,0,0,0,0,0,0,0,0,0,0,0,0,0,0,0,0,0,0,0,0,0,0,0,0,0,0,0,0,0,0,0,0,0,0,0,0,0,0,0,0,0,0,0,0,0,0,0,0,0,0,0,0,0,0,0,0,0,0,0,0,0,0,0,0,0,0,0,0,0,0,0,0,0,0,0,0,0,0,0,0,0,0,0,0,0,0,0,0,0,0,0,0,0,0,0,0],"split_type":[0,0,0,0,0,0,0,0,0,0,0,0,0,0,0,0,0,0,0,0,0,0,0,0,0,0,0,0,0,0,0,0,0,0,0,0,0,0,0,0,0,0,0,0,0,0,0,0,0,0,0,0,0,0,0,0,0,0,0,0,0,0,0,0,0,0,0,0,0,0,0,0,0,0,0,0,0,0,0,0,0,0,0,0,0,0,0,0,0,0,0,0,0,0,0,0,0],"sum_hessian":[9.652E3,4.98E3,4.672E3,2.47E3,2.51E3,2.123E3,2.549E3,1.268E3,1.202E3,1.333E3,1.177E3,1.228E3,8.95E2,1.35E3,1.199E3,6.45E2,6.23E2,6.08E2,5.94E2,7.36E2,5.97E2,5.37E2,6.4E2,6.33E2,5.95E2,3.42E2,5.53E2,6.31E2,7.19E2,5.79E2,6.2E2,3.47E2,2.98E2,3.59E2,2.64E2,3.38E2,2.7E2,3.69E2,2.25E2,4.71E2,2.65E2,2.92E2,3.05E2,3.05E2,2.32E2,3.03E2,3.37E2,2.53E2,3.8E2,2.58E2,3.37E2,1.46E2,1.96E2,2.67E2,2.86E2,3.36E2,2.95E2,2.98E2,4.21E2,2.43E2,2.28E2,1.47E2,1.45E2,1.59E2,1.46E2,1.58E2,7.4E1,1.51E2,1.52E2,1.45E2,1.92E2,1.78E2,7.5E1,2.29E2,1.51E2,1.09E2,1.49E2,1.89E2,1.48E2,7.3E1,7.9E1,7E1,7.5E1,3.7E1,1.55E2,7E1,1.08E2,7.6E1,1.53E2,1.2E2,3.5E1,3.7E1,3.3E1,8.5E1,3.5E1,4.1E1,4.4E1],"tree_param":{"num_deleted":"0","num_feature":"1","num_nodes":"97","size_leaf_vector":"1"}},{"base_weights":[1.6324176E-2,-7.1593185E1,7.368959E1,-1.1044886E2,-3.5871716E1,3.7376354E1,1.0756267E2,-1.292588E2,-9.2797966E1,-5.486242E1,-1.744381E1,2.1695778E1,5.88595E1,9.046952E1,1.2482092E2,-1.3909619E1,-1.21396065E2,-1.01386795E2,-8.2654755E1,-6.404306E1,-4.515452E1,-2.6752357E1,-7.798889E0,1.1020146E1,3.1590525E1,4.8324562E1,6.449751E1,8.179791E1,9.828433E1,1.156814E1,1.3270225E1,-1.257561E1,-1.1588865E1,-1.064933E1,-9.643312E0,-8.715938E0,-7.8447175E0,-6.809635E0,-5.927876E0,-5.0237837E0,-4.103907E1,-3.1381777E1,-2.2112013E1,-1.2022151E1,-3.1007335E0,4.8721614E0,1.5095319E1,2.6399834E1,3.5873043E1,4.4313664E0,5.2967486E0,6.1328735E0,6.9945054E0,7.769548E0,8.476085E0,9.408756E0,1.0264098E1,-4.340991E0,-3.8767319E0,-3.3212783E0,-2.7933037E0,-2.380218E0,-1.87008E0,-1.4627626E0,-9.726233E0,-5.814472E-1,-1.391624E0,2.5881484E-1,6.64294E0,1.2278532E1,1.7006239E1,2.3361933E0,2.7976367E0,3.2480118E0,3.780344E0,-1.0651675E0,-8.2566565E-1,-2.996919E-1,-2.552665E-1,6.1028934E-1,7.880988E-1,1.107955E0,1.3281521E0,1.5216593E0,1.7816954E0,-4.6132994E-1,1.1687775E-2,-3.9075892E-2,-5.351272E-2],"categories":[],"categories_nodes":[],"categories_segments":[],"categories_sizes":[],"default_left":[0,0,0,0,0,0,0,0,0,0,0,0,0,0,0,0,0,0,0,0,0,0,0,0,0,0,0,0,0,0,0,0,0,0,0,0,0,0,0,0,0,0,0,0,0,0,0,0,0,0,0,0,0,0,0,0,0,0,0,0,0,0,0,0,0,0,0,0,0,0,0,0,0,0,0,0,0,0,0,0,0,0,0,0,0,0,0,0,0],"id":2,"left_children":[1,3,5,7,9,11,13,15,17,19,21,23,25,27,29,-1,31,33,35,37,39,41,43,45,47,49,51,53,55,-1,-1,-1,-1,-1,-1,-1,-1,-1,-1,-1,57,59,61,63,65,67,69,71,73,-1,-1,-1,-1,-1,-1,-1,-1,-1,-1,-1,-1,-1,-1,-1,75,-1,77,-1,79,81,83,-1,-1,-1,-1,-1,-1,-1,85,-1,-1,-1,-1,-1,-1,87,-1,-1,-1],"loss_changes":[5.0509612E7,6.73469E6,5.800542E6,7.59932E5,8.8478925E5,7.6644525E5,7.08796E5,6.9978E4,9.6423E4,1.081575E5,1.1524869E5,1.3898131E5,5.3963E4,7.5314E4,7.195E4,0E0,6.03E2,6.0975E3,3.71975E3,8.28375E3,1.067875E4,1.3355344E4,1.2522418E4,1.5860859E4,1.425775E4,3.9658125E3,6.46425E3,5.7375E2,2.081E3,0E0,0E0,0E0,0E0,0E0,0E0,0E0,0E0,0E0,0E0,0E0,1.590625E2,1.1245312E3,1.4575156E3,1.8497188E3,1.3879692E3,1.0141504E3,1.8473672E3,8.454844E2,1.208625E3,0E0,0E0,0E0,0E0,0E0,0E0,0E0,0E0,0E0,0E0,0E0,0E0,0E0,0E0,0E0,1.5685547E2,0E0,3.3853406E2,0E0,4.7513184E1,4.2851562E1,5.5335938E1,0E0,0E0,0E0,0E0,0E0,0E0,0E0,8.4893055E0,0E0,0E0,0E0,0E0,0E0,0E0,1.6065788E-1,0E0,0E0,0E0],"parents":[2147483647,0,0,1,1,2,2,3,3,4,4,5,5,6,6,7,7,8,8,9,9,10,10,11,11,12,12,13,13,14,14,16,16,17,17,18,18,19,19,20,20,21,21,22,22,23,23,24,24,25,25,26,26,27,27,28,28,40,40,41,41,42,42,43,43,44,44,45,45,46,46,47,47,48,48,64,64,66,66,68,68,69,69,70,70,78,78,85,85],"right_children":[2,4,6,8,10,12,14,16,18,20,22,24,26,28,30,-1,32,34,36,38,40,42,44,46,48,50,52,54,56,-1,-1,-1,-1,-1,-1,-1,-1,-1,-1,-1,58,60,62,64,66,68,70,72,74,-1,-1,-1,-1,-1,-1,-1,-1,-1,-1,-1,-1,-1,-1,-1,76,-1,78,-1,80,82,84,-1,-1,-1,-1,-1,-1,-1,86,-1,-1,-1,-1,-1,-1,88,-1,-1,-1],"split_conditions":[8.30648E-3,4.028822E-3,1.2341029E-2,1.961463E-3,6.146462E-3,1.0705105E-2,1.4412184E-2,9.23521E-4,3.043124E-3,5.084326E-3,7.266038E-3,9.50447E-3,1.1262851E-2,1.3369406E-2,1.5385673E-2,-1.3909619E1,1.456146E-3,2.492502E-3,3.501056E-3,4.591009E-3,5.532335E-3,6.69173E-3,7.819498E-3,8.85646E-3,1.0071595E-2,1.1015484E-2,1.1942747E-2,1.2780599E-2,1.3878973E-2,1.156814E1,1.3270225E1,-1.257561E1,-1.1588865E1,-1.064933E1,-9.643312E0,-8.715938E0,-7.8447175E0,-6.809635E0,-5.927876E0,-5.0237837E0,5.811765E-3,6.49111E-3,7.062743E-3,7.522486E-3,8.01755E-3,8.556246E-3,9.106627E-3,9.718615E-3,1.0313097E-2,4.4313664E0,5.2967486E0,6.1328735E0,6.9945054E0,7.769548E0,8.476085E0,9.408756E0,1.0264098E1,-4.340991E0,-3.8767319E0,-3.3212783E0,-2.7933037E0,-2.380218E0,-1.87008E0,-1.4627626E0,7.692156E-3,-5.814472E-1,8.128059E-3,2.5881484E-1,8.777687E-3,8.96607E-3,9.213231E-3,2.3361933E0,2.7976367E0,3.2480118E0,3.780344E0,-1.0651675E0,-8.2566565E-1,-2.996919E-1,8.242216E-3,6.1028934E-1,7.880988E-1,1.107955E0,1.3281521E0,1.5216593E0,1.7816954E0,8.181664E-3,1.1687775E-2,-3.9075892E-2,-5.351272E-2],"split_indices":[0,0,0,0,0,0,0,0,0,0,0,0,0,0,0,0,0,0,0,0,0,0,0,0,0,0,0,0,0,0,0,0,0,0,0,0,0,0,0,0,0,0,0,0,0,0,0,0,0,0,0,0,0,0,0,0,0,0,0,0,0,0,0,0,0,0,0,0,0,0,0,0,0,0,0,0,0,0,0,0,0,0,0,0,0,0,0,0,0],"split_type":[0,0,0,0,0,0,0,0,0,0,0,0,0,0,0,0,0,0,0,0,0,0,0,0,0,0,0,0,0,0,0,0,0,0,0,0,0,0,0,0,0,0,0,0,0,0,0,0,0,0,0,0,0,0,0,0,0,0,0,0,0,0,0,0,0,0,0,0,0,0,0,0,0,0,0,0,0,0,0,0,0,0,0,0,0,0,0,0,0],"sum_hessian":[9.572E3,4.854E3,4.718E3,2.324E3,2.53E3,2.278E3,2.44E3,1.122E3,1.202E3,1.245E3,1.285E3,1.318E3,9.6E2,1.229E3,1.211E3,4.91E2,6.31E2,6.46E2,5.56E2,6.37E2,6.08E2,6.53E2,6.32E2,6.35E2,6.83E2,3.38E2,6.22E2,5.88E2,6.41E2,5.68E2,6.43E2,3.4E2,2.91E2,3.08E2,3.38E2,2.59E2,2.97E2,3.37E2,3E2,2.67E2,3.41E2,3.24E2,3.29E2,3.32E2,3E2,2.54E2,3.81E2,3.12E2,3.71E2,1.87E2,1.51E2,4.01E2,2.21E2,2.58E2,3.3E2,3.38E2,3.03E2,1.58E2,1.83E2,2.06E2,1.18E2,2.16E2,1.13E2,1.53E2,1.79E2,1.15E2,1.85E2,1.12E2,1.42E2,1.57E2,2.24E2,1.12E2,2E2,1.41E2,2.3E2,1.06E2,7.3E1,7.6E1,1.09E2,1.03E2,3.9E1,7.7E1,8E1,7.6E1,1.48E2,7E1,3.9E1,3.9E1,3.1E1],"tree_param":{"num_deleted":"0","num_feature":"1","num_nodes":"89","size_leaf_vector":"1"}},{"base_weights":[5.8536905E-1,-6.3836273E1,6.6745445E1,-9.73192E1,-2.9856342E1,3.365089E1,9.602522E1,-1.1419396E2,-7.928396E1,-4.5243526E1,-1.3472984E1,1.9723267E1,5.260876E1,8.245764E1,1.1352842E2,-1.2218731E2,-1.0371482E1,-8.701583E1,-7.041438E1,-5.2360275E1,-3.5580307E1,-2.135273E1,-5.462003E0,1.0789128E1,2.880877E1,4.337446E1,5.7648876E1,7.455743E1,9.122656E1,1.08307526E2,1.2308067E1,-1.2860498E1,-1.1703358E1,-9.103798E0,-8.221579E0,-7.3260903E0,-6.562574E0,-5.671759E0,-4.7178383E0,-3.8801935E0,-3.2060754E0,-2.4937105E1,-1.6756557E1,-9.578743E0,-1.5733002E0,6.061158E0,1.5216739E1,2.3934734E1,3.1541712E1,3.9820797E0,4.7338734E0,5.438501E0,6.0723114E0,6.9642906E0,7.780244E0,8.7594E0,9.51998E0,1.0073344E1,1.1086631E1,-2.7141058E0,-2.2949693E0,-1.8442261E0,-1.4406327E0,-1.1966592E0,-8.036719E0,-3.4218748E0,1.4400293E-1,4.09856E0,9.1484165E0,1.3341533E1,1.7524203E0,2.210246E0,2.5533113E0,2.8541582E0,3.3194568E0,-8.563603E0,-5.684507E-1,-4.3993172E-1,-2.501545E0,-5.0085413E-1,8.557247E-1,2.9130125E0,4.9153692E-1,7.8111535E-1,9.7054815E-1,1.1305485E0,1.3863757E0,-9.1894084E-1,-7.713229E-1,-2.872887E-1,-1.9738522E-1,-2.876438E-2,-6.9249995E-2,5.593699E-2,1.1149402E-1,3.3978865E-1,2.3452635E-1],"categories":[],"categories_nodes":[],"categories_segments":[],"categories_sizes":[],"default_left":[0,0,0,0,0,0,0,0,0,0,0,0,0,0,0,0,0,0,0,0,0,0,0,0,0,0,0,0,0,0,0,0,0,0,0,0,0,0,0,0,0,0,0,0,0,0,0,0,0,0,0,0,0,0,0,0,0,0,0,0,0,0,0,0,0,0,0,0,0,0,0,0,0,0,0,0,0,0,0,0,0,0,0,0,0,0,0,0,0,0,0,0,0,0,0,0,0],"id":3,"left_children":[1,3,5,7,9,11,13,15,17,19,21,23,25,27,29,31,-1,33,35,37,39,41,43,45,47,49,51,53,55,57,-1,-1,-1,-1,-1,-1,-1,-1,-1,-1,-1,59,61,63,65,67,69,71,73,-1,-1,-1,-1,-1,-1,-1,-1,-1,-1,-1,-1,-1,-1,-1,75,77,79,81,83,85,-1,-1,-1,-1,-1,87,-1,-1,89,91,93,95,-1,-1,-1,-1,-1,-1,-1,-1,-1,-1,-1,-1,-1,-1,-1],"loss_changes":[4.097622E7,5.539062E6,4.592742E6,7.37492E5,6.0920525E5,5.8723925E5,5.88126E5,9.3288E4,7.5413E4,8.389425E4,7.3928375E4,1.0407528E5,4.138875E4,9.164E4,4.1329E4,8.499E3,0E0,4.6975E3,2.812E3,1.349075E4,4.7881875E3,9.318531E3,9.318047E3,1.3514617E4,7.7301875E3,2.8625E3,2.788125E3,6.59025E3,1.317E3,2.727E3,0E0,0E0,0E0,0E0,0E0,0E0,0E0,0E0,0E0,0E0,0E0,8.225781E2,7.723047E2,9.458672E2,9.560362E2,1.8771641E3,1.2157422E3,1.1803125E2,1.060875E3,0E0,0E0,0E0,0E0,0E0,0E0,0E0,0E0,0E0,0E0,0E0,0E0,0E0,0E0,0E0,1.6820508E2,1.19432495E2,7.248512E1,1.745127E2,1.5072266E1,4.421875E1,0E0,0E0,0E0,0E0,0E0,4.15625E0,0E0,0E0,9.417847E0,3.1922588E0,5.1378136E0,1.4604553E1,0E0,0E0,0E0,0E0,0E0,0E0,0E0,0E0,0E0,0E0,0E0,0E0,0E0,0E0,0E0],"parents":[2147483647,0,0,1,1,2,2,3,3,4,4,5,5,6,6,7,7,8,8,9,9,10,10,11,11,12,12,13,13,14,14,15,15,17,17,18,18,19,19,20,20,21,21,22,22,23,23,24,24,25,25,26,26,27,27,28,28,29,29,41,41,42,42,43,43,44,44,45,45,46,46,47,47,48,48,64,64,65,65,66,66,67,67,68,68,69,69,75,75,78,78,79,79,80,80,81,81],"right_children":[2,4,6,8,10,12,14,16,18,20,22,24,26,28,30,32,-1,34,36,38,40,42,44,46,48,50,52,54,56,58,-1,-1,-1,-1,-1,-1,-1,-1,-1,-1,-1,60,62,64,66,68,70,72,74,-1,-1,-1,-1,-1,-1,-1,-1,-1,-1,-1,-1,-1,-1,-1,76,78,80,82,84,86,-1,-1,-1,-1,-1,88,-1,-1,90,92,94,96,-1,-1,-1,-1,-1,-1,-1,-1,-1,-1,-1,-1,-1,-1,-1],"split_conditions":[8.395841E-3,4.295342E-3,1.2273652E-2,2.22533E-3,6.383376E-3,1.0705105E-2,1.4614466E-2,1.281434E-3,3.29688E-3,5.481989E-3,7.396481E-3,9.578593E-3,1.1262851E-2,1.3548209E-2,1.5807983E-2,5.46986E-4,-1.0371482E1,2.795306E-3,3.900482E-3,4.882196E-3,5.946857E-3,6.949388E-3,7.891383E-3,8.96607E-3,9.99576E-3,1.1015484E-2,1.1762549E-2,1.2780599E-2,1.408728E-2,1.4953894E-2,1.2308067E1,-1.2860498E1,-1.1703358E1,-9.103798E0,-8.221579E0,-7.3260903E0,-6.562574E0,-5.671759E0,-4.7178383E0,-3.8801935E0,-3.2060754E0,6.619059E-3,7.196909E-3,7.5871E-3,8.128059E-3,8.777687E-3,9.277062E-3,9.786788E-3,1.0254182E-2,3.9820797E0,4.7338734E0,5.438501E0,6.0723114E0,6.9642906E0,7.780244E0,8.7594E0,9.51998E0,1.0073344E1,1.1086631E1,-2.7141058E0,-2.2949693E0,-1.8442261E0,-1.4406327E0,-1.1966592E0,7.819498E-3,8.01755E-3,8.242216E-3,8.556246E-3,8.85646E-3,9.034992E-3,1.7524203E0,2.210246E0,2.5533113E0,2.8541582E0,3.3194568E0,7.692156E-3,-5.684507E-1,-4.3993172E-1,8.074021E-3,8.181664E-3,8.30648E-3,8.457099E-3,4.9153692E-1,7.8111535E-1,9.7054815E-1,1.1305485E0,1.3863757E0,-9.1894084E-1,-7.713229E-1,-2.872887E-1,-1.9738522E-1,-2.876438E-2,-6.9249995E-2,5.593699E-2,1.1149402E-1,3.3978865E-1,2.3452635E-1],"split_indices":[0,0,0,0,0,0,0,0,0,0,0,0,0,0,0,0,0,0,0,0,0,0,0,0,0,0,0,0,0,0,0,0,0,0,0,0,0,0,0,0,0,0,0,0,0,0,0,0,0,0,0,0,0,0,0,0,0,0,0,0,0,0,0,0,0,0,0,0,0,0,0,0,0,0,0,0,0,0,0,0,0,0,0,0,0,0,0,0,0,0,0,0,0,0,0,0,0],"split_type":[0,0,0,0,0,0,0,0,0,0,0,0,0,0,0,0,0,0,0,0,0,0,0,0,0,0,0,0,0,0,0,0,0,0,0,0,0,0,0,0,0,0,0,0,0,0,0,0,0,0,0,0,0,0,0,0,0,0,0,0,0,0,0,0,0,0,0,0,0,0,0,0,0,0,0,0,0,0,0,0,0,0,0,0,0,0,0,0,0,0,0,0,0,0,0,0,0],"sum_hessian":[9.612E3,4.87E3,4.742E3,2.452E3,2.418E3,2.227E3,2.515E3,1.264E3,1.188E3,1.246E3,1.172E3,1.285E3,9.42E2,1.42E3,1.095E3,7.11E2,5.53E2,6.3E2,5.58E2,7.15E2,5.31E2,5.9E2,5.82E2,6.49E2,6.36E2,3.36E2,6.06E2,7.52E2,6.68E2,7.16E2,3.79E2,3.06E2,4.05E2,3.33E2,2.97E2,3.41E2,2.17E2,3.83E2,3.32E2,2.72E2,2.59E2,3.29E2,2.61E2,2.82E2,3E2,3.15E2,3.34E2,2.32E2,4.04E2,1.83E2,1.53E2,3.03E2,3.03E2,3.08E2,4.44E2,3.61E2,3.07E2,1.91E2,5.25E2,1.5E2,1.79E2,1.48E2,1.13E2,1.08E2,1.74E2,1.44E2,1.56E2,1.94E2,1.21E2,1.88E2,1.46E2,1.15E2,1.17E2,1.5E2,2.54E2,1.4E2,3.4E1,6.8E1,7.6E1,8.2E1,7.4E1,8.1E1,1.13E2,4E1,8.1E1,4.3E1,1.45E2,7.5E1,6.5E1,4.2E1,3.4E1,4E1,4.2E1,3.6E1,3.8E1,4.1E1,4E1],"tree_param":{"num_deleted":"0","num_feature":"1","num_nodes":"97","size_leaf_vector":"1"}},{"base_weights":[-6.3723475E-1,-5.7994453E1,5.9367374E1,-8.850577E1,-2.8259132E1,2.9000572E1,8.569955E1,-1.0430558E2,-7.3635185E1,-4.365702E1,-1.4214512E1,1.6245377E1,4.4711807E1,7.076331E1,9.9612305E1,-1.1353782E1,-9.83695E1,-8.177532E1,-6.660396E1,-5.0601337E1,-3.615076E1,-2.1912874E1,-6.326427E0,9.107951E0,2.4276228E1,3.494829E1,4.9798946E1,6.365374E1,7.74938E1,9.372909E1,1.0967195E1,-1.02002535E1,-9.289463E0,-8.49585E0,-7.795447E0,-7.04581E0,-6.152163E0,-5.370151E0,-4.6606936E0,-3.9440098E0,-3.2299058E0,-2.5682348E1,-1.788725E1,-9.627268E0,-2.3505845E0,5.2467613E0,1.333292E1,2.0746426E1,2.7217221E0,3.2486017E0,3.787319E0,4.669369E0,5.3099184E0,5.949489E0,6.61847E0,7.406102E0,8.100134E0,8.73363E0,9.784406E0,-2.7509344E0,-2.3163352E0,-2.0055788E0,-1.5939949E0,-1.1728688E0,-7.924997E0,-4.308407E0,-4.033369E-1,3.8577592E0,7.8018446E0,1.1943554E0,1.4735554E0,1.9270327E0,2.2690809E0,-9.023692E-1,-7.080015E-1,-5.0632566E-1,-3.5662264E-1,-6.4852583E-1,4.0680237E-2,2.6934605E0,4.9260974E-1,6.423054E-1,8.408893E-1,-9.166194E-2,-5.130388E-1,1.904918E-1,3.019366E-1,-3.3674426E-2,-6.721001E-2],"categories":[],"categories_nodes":[],"categories_segments":[],"categories_sizes":[],"default_left":[0,0,0,0,0,0,0,0,0,0,0,0,0,0,0,0,0,0,0,0,0,0,0,0,0,0,0,0,0,0,0,0,0,0,0,0,0,0,0,0,0,0,0,0,0,0,0,0,0,0,0,0,0,0,0,0,0,0,0,0,0,0,0,0,0,0,0,0,0,0,0,0,0,0,0,0,0,0,0,0,0,0,0,0,0,0,0,0,0],"id":4,"left_children":[1,3,5,7,9,11,13,15,17,19,21,23,25,27,29,-1,31,33,35,37,39,41,43,45,47,49,51,53,55,57,-1,-1,-1,-1,-1,-1,-1,-1,-1,-1,-1,59,61,63,65,67,69,71,-1,-1,-1,-1,-1,-1,-1,-1,-1,-1,-1,-1,-1,-1,-1,-1,73,75,77,79,81,-1,-1,-1,-1,-1,-1,-1,-1,83,-1,85,-1,-1,-1,-1,87,-1,-1,-1,-1],"loss_changes":[3.2957696E7,4.439463E6,3.739756E6,5.59966E5,5.3591425E5,4.3514362E5,5.1371E5,5.2896E4,6.5983E4,5.98355E4,7.874359E4,6.867706E4,4.66365E4,5.3062E4,6.6362E4,0E0,4.8255E3,3.5825E2,8.88725E3,5.075875E3,5.973125E3,9.510219E3,8.415861E3,1.0337992E4,5.3006875E3,1.1966875E3,4.059E3,2.32525E3,1.44225E3,1.31305E4,0E0,0E0,0E0,0E0,0E0,0E0,0E0,0E0,0E0,0E0,0E0,9.137344E2,1.0358281E3,1.1626406E3,1.115285E3,1.1588232E3,4.164336E2,3.1183594E2,0E0,0E0,0E0,0E0,0E0,0E0,0E0,0E0,0E0,0E0,0E0,0E0,0E0,0E0,0E0,0E0,1.1900195E2,6.373755E1,2.9662127E1,2.5913818E2,4.391748E1,0E0,0E0,0E0,0E0,0E0,0E0,0E0,0E0,3.670578E0,0E0,2.1746277E1,0E0,0E0,0E0,0E0,1.9609222E0,0E0,0E0,0E0,0E0],"parents":[2147483647,0,0,1,1,2,2,3,3,4,4,5,5,6,6,7,7,8,8,9,9,10,10,11,11,12,12,13,13,14,14,16,16,17,17,18,18,19,19,20,20,21,21,22,22,23,23,24,24,25,25,26,26,27,27,28,28,29,29,41,41,42,42,43,43,44,44,45,45,46,46,47,47,64,64,65,65,66,66,67,67,68,68,77,77,79,79,84,84],"right_children":[2,4,6,8,10,12,14,16,18,20,22,24,26,28,30,-1,32,34,36,38,40,42,44,46,48,50,52,54,56,58,-1,-1,-1,-1,-1,-1,-1,-1,-1,-1,-1,60,62,64,66,68,70,72,-1,-1,-1,-1,-1,-1,-1,-1,-1,-1,-1,-1,-1,-1,-1,-1,74,76,78,80,82,-1,-1,-1,-1,-1,-1,-1,-1,84,-1,86,-1,-1,-1,-1,88,-1,-1,-1,-1],"split_conditions":[8.30648E-3,4.150994E-3,1.2156439E-2,2.023452E-3,6.146462E-3,1.051786E-2,1.4220489E-2,8.45513E-4,2.976674E-3,5.155666E-3,7.266038E-3,9.50447E-3,1.1084997E-2,1.3143161E-2,1.5625603E-2,-1.1353782E1,1.502477E-3,2.564794E-3,3.630411E-3,4.701878E-3,5.68122E-3,6.69173E-3,7.819498E-3,8.96607E-3,9.99576E-3,1.0827052E-2,1.162379E-2,1.2548727E-2,1.3715509E-2,1.4806709E-2,1.0967195E1,-1.02002535E1,-9.289463E0,-8.49585E0,-7.795447E0,-7.04581E0,-6.152163E0,-5.370151E0,-4.6606936E0,-3.9440098E0,-3.2299058E0,6.436811E-3,6.949388E-3,7.522486E-3,8.074021E-3,8.777687E-3,9.213231E-3,9.786788E-3,2.7217221E0,3.2486017E0,3.787319E0,4.669369E0,5.3099184E0,5.949489E0,6.61847E0,7.406102E0,8.100134E0,8.73363E0,9.784406E0,-2.7509344E0,-2.3163352E0,-2.0055788E0,-1.5939949E0,-1.1728688E0,7.639142E-3,7.95394E-3,8.242216E-3,8.556246E-3,8.85646E-3,1.1943554E0,1.4735554E0,1.9270327E0,2.2690809E0,-9.023692E-1,-7.080015E-1,-5.0632566E-1,-3.5662264E-1,8.128059E-3,4.0680237E-2,8.395841E-3,4.9260974E-1,6.423054E-1,8.408893E-1,-9.166194E-2,8.181664E-3,1.904918E-1,3.019366E-1,-3.3674426E-2,-6.721001E-2],"split_indices":[0,0,0,0,0,0,0,0,0,0,0,0,0,0,0,0,0,0,0,0,0,0,0,0,0,0,0,0,0,0,0,0,0,0,0,0,0,0,0,0,0,0,0,0,0,0,0,0,0,0,0,0,0,0,0,0,0,0,0,0,0,0,0,0,0,0,0,0,0,0,0,0,0,0,0,0,0,0,0,0,0,0,0,0,0,0,0,0,0],"split_type":[0,0,0,0,0,0,0,0,0,0,0,0,0,0,0,0,0,0,0,0,0,0,0,0,0,0,0,0,0,0,0,0,0,0,0,0,0,0,0,0,0,0,0,0,0,0,0,0,0,0,0,0,0,0,0,0,0,0,0,0,0,0,0,0,0,0,0,0,0,0,0,0,0,0,0,0,0,0,0,0,0,0,0,0,0,0,0,0,0],"sum_hessian":[9.574E3,4.895E3,4.679E3,2.415E3,2.48E3,2.174E3,2.505E3,1.168E3,1.247E3,1.182E3,1.298E3,1.201E3,9.73E2,1.211E3,1.294E3,4.5E2,7.18E2,5.73E2,6.74E2,6.11E2,5.71E2,6.56E2,6.42E2,6.37E2,5.64E2,3.36E2,6.37E2,5.94E2,6.17E2,8.23E2,4.71E2,4.21E2,2.97E2,3.01E2,2.72E2,3.76E2,2.98E2,3.37E2,2.74E2,3.03E2,2.68E2,3.36E2,3.2E2,3.5E2,2.92E2,3.34E2,3.03E2,2.6E2,3.04E2,1.89E2,1.47E2,3.36E2,3.01E2,2.34E2,3.6E2,3.23E2,2.94E2,3.31E2,4.92E2,1.89E2,1.47E2,1.47E2,1.73E2,1.54E2,1.96E2,1.45E2,1.47E2,2.18E2,1.16E2,1.57E2,1.46E2,1.54E2,1.06E2,8.1E1,1.15E2,6.9E1,7.6E1,1.13E2,3.4E1,1.06E2,1.12E2,3.9E1,7.7E1,3.6E1,7.7E1,3.3E1,7.3E1,3.8E1,3.9E1],"tree_param":{"num_deleted":"0","num_feature":"1","num_nodes":"89","size_leaf_vector":"1"}},{"base_weights":[-1.7145963E-1,-5.2918404E1,5.3280132E1,-8.060331E1,-2.6547516E1,2.5085747E1,7.6850494E1,-9.482152E1,-6.806752E1,-4.032182E1,-1.3641581E1,1.37565775E1,3.945078E1,6.503943E1,9.116519E1,-1.0284003E1,-8.9845345E1,-7.546365E1,-6.154444E1,-4.6886696E1,-3.3820194E1,-2.0382465E1,-6.45753E0,7.360137E0,2.0964825E1,3.113651E1,4.4504276E1,5.774615E1,7.129703E1,8.603416E1,9.894781E0,-9.283903E0,-8.561001E0,-7.8747177E0,-7.235808E0,-6.5361094E0,-5.751119E0,-4.997955E0,-4.3812385E0,-3.709172E0,-3.0080721E0,-2.3498888E1,-1.6509968E1,-9.188E0,-2.574096E0,3.767851E0,1.1180672E1,1.7715128E1,2.3915163E1,2.8008394E0,3.298622E0,4.1083336E0,4.64108E0,5.3467526E0,6.02481E0,6.807792E0,7.4918327E0,8.028805E0,8.854914E0,-2.4965835E0,-2.096297E0,-1.7719723E0,-1.42703E0,-1.1004631E1,-7.311234E0,-3.799872E0,-9.313379E-1,2.5876105E0,6.2355103E0,9.378492E-1,1.2217808E0,1.6211697E0,1.9722565E0,2.2753603E0,2.5667036E0,-1.1714504E0,-9.7376835E-1,-7.931135E-1,-6.29096E-1,-4.139022E0,-2.5866443E-1,-1.3848679E-1,-6.700703E-1,1.8674318E0,3.7857085E-1,4.902893E-1,6.7564905E-1,-4.664428E-1,-3.8036186E-1,-9.463984E-3,-1.258856E-1,8.436995E-2,2.1734066E0,1.7631023E-1,2.3628376E0,2.8166088E-1,1.9180611E-1],"categories":[],"categories_nodes":[],"categories_segments":[],"categories_sizes":[],"default_left":[0,0,0,0,0,0,0,0,0,0,0,0,0,0,0,0,0,0,0,0,0,0,0,0,0,0,0,0,0,0,0,0,0,0,0,0,0,0,0,0,0,0,0,0,0,0,0,0,0,0,0,0,0,0,0,0,0,0,0,0,0,0,0,0,0,0,0,0,0,0,0,0,0,0,0,0,0,0,0,0,0,0,0,0,0,0,0,0,0,0,0,0,0,0,0,0,0],"id":5,"left_children":[1,3,5,7,9,11,13,15,17,19,21,23,25,27,29,-1,31,33,35,37,39,41,43,45,47,49,51,53,55,57,-1,-1,-1,-1,-1,-1,-1,-1,-1,-1,-1,59,61,63,65,67,69,71,73,-1,-1,-1,-1,-1,-1,-1,-1,-1,-1,-1,-1,-1,-1,75,77,79,81,83,85,-1,-1,-1,-1,-1,-1,-1,-1,-1,-1,87,-1,-1,89,91,-1,-1,-1,-1,-1,-1,-1,-1,93,-1,95,-1,-1],"loss_changes":[2.7196012E7,3.542377E6,3.18194E6,4.15611E5,4.4174238E5,3.5472725E5,4.35178E5,3.4931E4,5.6241E4,4.9761125E4,6.2145297E4,5.6188594E4,3.903375E4,6.12835E4,3.8489E4,0E0,8.135E2,2.88E2,6.64725E3,3.477375E3,6.3223125E3,7.613375E3,6.592994E3,8.865043E3,5.0796875E3,1.1995938E3,1.980375E3,3.91875E3,3.84075E3,3.252E3,0E0,0E0,0E0,0E0,0E0,0E0,0E0,0E0,0E0,0E0,0E0,8.344531E2,5.572578E2,1.1673809E3,5.179972E2,9.624424E2,4.723125E2,5.162578E2,2.2375E1,0E0,0E0,0E0,0E0,0E0,0E0,0E0,0E0,0E0,0E0,0E0,0E0,0E0,0E0,5.141211E1,6.584766E1,5.0190674E1,1.2343224E1,1.9052197E2,4.1854492E1,0E0,0E0,0E0,0E0,0E0,0E0,0E0,0E0,0E0,0E0,2.3477783E0,0E0,0E0,2.4613647E1,4.35856E1,0E0,0E0,0E0,0E0,0E0,0E0,0E0,0E0,4.461487E0,0E0,9.330933E0,0E0,0E0],"parents":[2147483647,0,0,1,1,2,2,3,3,4,4,5,5,6,6,7,7,8,8,9,9,10,10,11,11,12,12,13,13,14,14,16,16,17,17,18,18,19,19,20,20,21,21,22,22,23,23,24,24,25,25,26,26,27,27,28,28,29,29,41,41,42,42,43,43,44,44,45,45,46,46,47,47,48,48,63,63,64,64,65,65,66,66,67,67,68,68,79,79,82,82,83,83,92,92,94,94],"right_children":[2,4,6,8,10,12,14,16,18,20,22,24,26,28,30,-1,32,34,36,38,40,42,44,46,48,50,52,54,56,58,-1,-1,-1,-1,-1,-1,-1,-1,-1,-1,-1,60,62,64,66,68,70,72,74,-1,-1,-1,-1,-1,-1,-1,-1,-1,-1,-1,-1,-1,-1,76,78,80,82,84,86,-1,-1,-1,-1,-1,-1,-1,-1,-1,-1,88,-1,-1,90,92,-1,-1,-1,-1,-1,-1,-1,-1,94,-1,96,-1,-1],"split_conditions":[8.242216E-3,4.028822E-3,1.2071919E-2,1.88247E-3,6.075866E-3,1.0458273E-2,1.4463706E-2,7.75029E-4,2.871003E-3,5.025074E-3,7.196909E-3,9.409663E-3,1.1084997E-2,1.3201801E-2,1.5691416E-2,-1.0284003E1,1.402404E-3,2.346715E-3,3.436783E-3,4.527751E-3,5.532335E-3,6.69173E-3,7.819498E-3,8.909965E-3,9.927115E-3,1.0705105E-2,1.1443196E-2,1.2548727E-2,1.3878973E-2,1.4881323E-2,9.894781E0,-9.283903E0,-8.561001E0,-7.8747177E0,-7.235808E0,-6.5361094E0,-5.751119E0,-4.997955E0,-4.3812385E0,-3.709172E0,-3.0080721E0,6.436811E-3,7.0133E-3,7.522486E-3,8.074021E-3,8.712294E-3,9.106627E-3,9.718615E-3,1.0254182E-2,2.8008394E0,3.298622E0,4.1083336E0,4.64108E0,5.3467526E0,6.02481E0,6.807792E0,7.4918327E0,8.028805E0,8.854914E0,-2.4965835E0,-2.096297E0,-1.7719723E0,-1.42703E0,7.396481E-3,7.692156E-3,8.01755E-3,8.128059E-3,8.556246E-3,8.777687E-3,9.378492E-1,1.2217808E0,1.6211697E0,1.9722565E0,2.2753603E0,2.5667036E0,-1.1714504E0,-9.7376835E-1,-7.931135E-1,-6.29096E-1,7.891383E-3,-2.5866443E-1,-1.3848679E-1,8.181664E-3,8.30648E-3,3.7857085E-1,4.902893E-1,6.7564905E-1,-4.664428E-1,-3.8036186E-1,-9.463984E-3,-1.258856E-1,8.436995E-2,8.395841E-3,1.7631023E-1,8.457099E-3,2.8166088E-1,1.9180611E-1],"split_indices":[0,0,0,0,0,0,0,0,0,0,0,0,0,0,0,0,0,0,0,0,0,0,0,0,0,0,0,0,0,0,0,0,0,0,0,0,0,0,0,0,0,0,0,0,0,0,0,0,0,0,0,0,0,0,0,0,0,0,0,0,0,0,0,0,0,0,0,0,0,0,0,0,0,0,0,0,0,0,0,0,0,0,0,0,0,0,0,0,0,0,0,0,0,0,0,0,0],"split_type":[0,0,0,0,0,0,0,0,0,0,0,0,0,0,0,0,0,0,0,0,0,0,0,0,0,0,0,0,0,0,0,0,0,0,0,0,0,0,0,0,0,0,0,0,0,0,0,0,0,0,0,0,0,0,0,0,0,0,0,0,0,0,0,0,0,0,0,0,0,0,0,0,0,0,0,0,0,0,0,0,0,0,0,0,0,0,0,0,0,0,0,0,0,0,0,0,0],"sum_hessian":[9.644E3,4.854E3,4.79E3,2.367E3,2.487E3,2.182E3,2.608E3,1.106E3,1.261E3,1.202E3,1.285E3,1.221E3,9.61E2,1.432E3,1.176E3,4.16E2,6.9E2,5.86E2,6.75E2,5.95E2,6.07E2,6.62E2,6.23E2,6.48E2,5.73E2,3.66E2,5.95E2,6.66E2,7.66E2,7.16E2,4.6E2,3.92E2,2.98E2,2.73E2,3.13E2,3.39E2,3.36E2,2.89E2,3.06E2,3.19E2,2.88E2,3.64E2,2.98E2,3.65E2,2.58E2,3.35E2,3.13E2,2.76E2,2.97E2,1.42E2,2.24E2,2.21E2,3.74E2,2.54E2,4.12E2,4.16E2,3.5E2,2.28E2,4.88E2,2.25E2,1.39E2,1.89E2,1.09E2,1.83E2,1.82E2,1.47E2,1.11E2,2.28E2,1.07E2,1.18E2,1.95E2,1.63E2,1.13E2,1.87E2,1.1E2,1.12E2,7.1E1,1.09E2,7.3E1,1.13E2,3.4E1,3.9E1,7.2E1,1.44E2,8.4E1,3.3E1,7.4E1,3.9E1,7.4E1,3.7E1,3.5E1,3.4E1,1.1E2,3.8E1,7.2E1,3.3E1,3.9E1],"tree_param":{"num_deleted":"0","num_feature":"1","num_nodes":"97","size_leaf_vector":"1"}},{"base_weights":[-3.0949384E-3,-4.5706253E1,4.889623E1,-7.048425E1,-2.0869787E1,2.5308342E1,7.0400116E1,-8.28193E1,-5.709754E1,-3.221865E1,-9.093464E0,1.4913164E1,3.8888973E1,6.070351E1,8.325805E1,-8.925599E1,-7.579507E1,-6.3225822E1,-5.0914864E1,-3.7930122E1,-2.5532696E1,-1.4395145E1,-3.050336E0,8.440941E0,2.1249357E1,3.1651432E1,4.248646E1,5.380256E1,6.600284E1,7.880058E0,8.914721E0,-9.4805E0,-8.576691E0,-7.925298E0,-7.195385E0,-6.5665793E0,-5.978421E0,-5.2982483E0,-4.716497E0,-4.0787435E0,-3.4193952E0,-2.7876668E0,-2.2741535E0,-1.7997433E0,-1.182347E1,-5.4400024E0,-2.7943632E-1,3.766032E0,1.0535327E1,1.8920145E1,2.4351006E0,2.89577E0,3.4547193E0,3.9500177E0,4.4962826E0,5.186834E0,5.6705422E0,6.303266E0,6.9652476E0,-1.3671569E0,-9.971584E0,-7.084023E-1,-4.481195E0,-1.5832564E0,2.828488E-1,1.9384594E-1,4.2133665E0,8.504804E0,1.2113965E1,1.7672888E0,2.065808E0,-1.0576292E0,-8.977672E-1,-5.3142595E-1,-3.848217E-1,-2.2111824E-1,-8.310439E-2,4.3796355E-1,-4.234866E-2,3.8573098E-1,5.208139E-1,7.5768703E-1,9.0269434E-1,1.1152385E0,1.3786906E0,-1.1661996E-1,9.195739E-1,2.3131913E-3,-2.5701439E-2,5.7154536E-2,1.2886427E-1],"categories":[],"categories_nodes":[],"categories_segments":[],"categories_sizes":[],"default_left":[0,0,0,0,0,0,0,0,0,0,0,0,0,0,0,0,0,0,0,0,0,0,0,0,0,0,0,0,0,0,0,0,0,0,0,0,0,0,0,0,0,0,0,0,0,0,0,0,0,0,0,0,0,0,0,0,0,0,0,0,0,0,0,0,0,0,0,0,0,0,0,0,0,0,0,0,0,0,0,0,0,0,0,0,0,0,0,0,0,0,0],"id":6,"left_children":[1,3,5,7,9,11,13,15,17,19,21,23,25,27,29,31,33,35,37,39,41,43,45,47,49,51,53,55,57,-1,-1,-1,-1,-1,-1,-1,-1,-1,-1,-1,-1,-1,-1,-1,59,61,63,65,67,69,-1,-1,-1,-1,-1,-1,-1,-1,-1,-1,71,-1,73,75,77,-1,79,81,83,-1,-1,-1,-1,-1,-1,-1,-1,85,-1,-1,-1,-1,-1,-1,-1,87,89,-1,-1,-1,-1],"loss_changes":[2.1432246E7,3.049057E6,2.34822E6,4.04948E5,3.3075275E5,3.1155388E5,2.97041E5,5.1514E4,4.198225E4,4.7185E4,3.8947234E4,5.124622E4,2.359875E4,4.7099E4,2.02495E4,4.7825E3,2.57225E3,1.07075E3,2.145375E3,5.8431875E3,3.1868125E3,5.7902344E3,3.772749E3,6.0503633E3,4.1123125E3,1.5113125E3,2.9345E3,4.67E2,4.054E3,0E0,0E0,0E0,0E0,0E0,0E0,0E0,0E0,0E0,0E0,0E0,0E0,0E0,0E0,0E0,1.1676367E3,4.5060254E2,1.9472424E2,1.5043481E2,1.2721172E3,4.2828125E2,0E0,0E0,0E0,0E0,0E0,0E0,0E0,0E0,0E0,0E0,2.1648438E1,0E0,8.2903076E1,3.5949127E1,2.0564198E1,0E0,3.481079E1,2.4145508E1,2.3071484E2,0E0,0E0,0E0,0E0,0E0,0E0,0E0,0E0,4.0972492E1,0E0,0E0,0E0,0E0,0E0,0E0,0E0,1.4186127E0,9.796089E0,0E0,0E0,0E0,0E0],"parents":[2147483647,0,0,1,1,2,2,3,3,4,4,5,5,6,6,7,7,8,8,9,9,10,10,11,11,12,12,13,13,14,14,15,15,16,16,17,17,18,18,19,19,20,20,21,21,22,22,23,23,24,24,25,25,26,26,27,27,28,28,44,44,45,45,46,46,47,47,48,48,49,49,60,60,62,62,63,63,64,64,66,66,67,67,68,68,77,77,85,85,86,86],"right_children":[2,4,6,8,10,12,14,16,18,20,22,24,26,28,30,32,34,36,38,40,42,44,46,48,50,52,54,56,58,-1,-1,-1,-1,-1,-1,-1,-1,-1,-1,-1,-1,-1,-1,-1,60,62,64,66,68,70,-1,-1,-1,-1,-1,-1,-1,-1,-1,-1,72,-1,74,76,78,-1,80,82,84,-1,-1,-1,-1,-1,-1,-1,-1,86,-1,-1,-1,-1,-1,-1,-1,88,90,-1,-1,-1,-1],"split_conditions":[8.457099E-3,4.354843E-3,1.2341029E-2,2.281177E-3,6.436811E-3,1.0705105E-2,1.466985E-2,1.233714E-3,3.29688E-3,5.481989E-3,7.522486E-3,9.578593E-3,1.1262851E-2,1.3369406E-2,1.5691416E-2,4.75328E-4,1.745998E-3,2.871003E-3,3.957266E-3,4.960663E-3,6.004845E-3,6.884636E-3,8.01755E-3,8.85646E-3,1.0254182E-2,1.1015484E-2,1.1762549E-2,1.2957857E-2,1.408728E-2,7.880058E0,8.914721E0,-9.4805E0,-8.576691E0,-7.925298E0,-7.195385E0,-6.5665793E0,-5.978421E0,-5.2982483E0,-4.716497E0,-4.0787435E0,-3.4193952E0,-2.7876668E0,-2.2741535E0,-1.7997433E0,7.196909E-3,7.692156E-3,8.128059E-3,8.556246E-3,9.166829E-3,9.99576E-3,2.4351006E0,2.89577E0,3.4547193E0,3.9500177E0,4.4962826E0,5.186834E0,5.6705422E0,6.303266E0,6.9652476E0,-1.3671569E0,7.396481E-3,-7.084023E-1,7.819498E-3,8.074021E-3,8.395841E-3,1.9384594E-1,8.777687E-3,8.96607E-3,9.409663E-3,1.7672888E0,2.065808E0,-1.0576292E0,-8.977672E-1,-5.3142595E-1,-3.848217E-1,-2.2111824E-1,-8.310439E-2,8.242216E-3,-4.234866E-2,3.8573098E-1,5.208139E-1,7.5768703E-1,9.0269434E-1,1.1152385E0,1.3786906E0,8.181664E-3,8.30648E-3,2.3131913E-3,-2.5701439E-2,5.7154536E-2,1.2886427E-1],"split_indices":[0,0,0,0,0,0,0,0,0,0,0,0,0,0,0,0,0,0,0,0,0,0,0,0,0,0,0,0,0,0,0,0,0,0,0,0,0,0,0,0,0,0,0,0,0,0,0,0,0,0,0,0,0,0,0,0,0,0,0,0,0,0,0,0,0,0,0,0,0,0,0,0,0,0,0,0,0,0,0,0,0,0,0,0,0,0,0,0,0,0,0],"split_type":[0,0,0,0,0,0,0,0,0,0,0,0,0,0,0,0,0,0,0,0,0,0,0,0,0,0,0,0,0,0,0,0,0,0,0,0,0,0,0,0,0,0,0,0,0,0,0,0,0,0,0,0,0,0,0,0,0,0,0,0,0,0,0,0,0,0,0,0,0,0,0,0,0,0,0,0,0,0,0,0,0,0,0,0,0,0,0,0,0,0,0],"sum_hessian":[9.588E3,4.956E3,4.632E3,2.48E3,2.476E3,2.21E3,2.422E3,1.288E3,1.192E3,1.26E3,1.216E3,1.253E3,9.57E2,1.384E3,1.038E3,6.66E2,6.22E2,5.94E2,5.98E2,6.77E2,5.83E2,6.47E2,5.69E2,6.21E2,6.32E2,3.21E2,6.36E2,6.06E2,7.78E2,5.99E2,4.39E2,2.47E2,4.19E2,3.17E2,3.05E2,3.37E2,2.57E2,3.77E2,2.21E2,3.78E2,2.99E2,3.12E2,2.71E2,2.67E2,3.8E2,3.05E2,2.64E2,1.93E2,4.28E2,3.65E2,2.67E2,1.72E2,1.49E2,2.96E2,3.4E2,3.75E2,2.31E2,4.39E2,3.39E2,1.87E2,1.93E2,1.1E2,1.95E2,7.9E1,1.85E2,3.9E1,1.54E2,1.9E2,2.38E2,2.19E2,1.46E2,1.14E2,7.9E1,8.1E1,1.14E2,4.2E1,3.7E1,1.52E2,3.3E1,1.17E2,3.7E1,7.4E1,1.16E2,1.56E2,8.2E1,7.1E1,8.1E1,3.6E1,3.5E1,4.3E1,3.8E1],"tree_param":{"num_deleted":"0","num_feature":"1","num_nodes":"91","size_leaf_vector":"1"}},{"base_weights":[-1.6549571E-1,-4.211464E1,4.3607174E1,-6.3790928E1,-1.9795544E1,2.2481335E1,6.3387688E1,-7.523729E1,-5.2357613E1,-2.9483318E1,-8.84119E0,1.2520178E1,3.459874E1,5.491097E1,7.517269E1,-8.145642E1,-6.99332E1,-5.7811844E1,-4.641034E1,-3.4933872E1,-2.3849285E1,-1.4409158E1,-4.576249E0,6.992054E0,1.8729809E1,2.8369902E1,3.8186985E1,4.9189182E1,6.0421093E1,7.1702256E0,8.119197E0,-8.596881E0,-7.849849E0,-7.289107E0,-6.6111636E0,-6.127382E0,-5.530975E0,-4.9045997E0,-4.366573E0,-3.7805965E0,-3.2347653E0,-2.7420127E0,-2.1786608E1,-1.6316973E1,-1.205574E1,-7.0482845E0,-1.6026735E0,3.226475E0,9.296581E0,1.5612308E1,2.0608782E1,2.6121688E0,3.1534755E0,3.6275985E0,4.1300454E0,4.5246973E0,5.1026564E0,5.7194905E0,6.265972E0,-2.3472142E0,-2.0224788E0,-1.7649285E0,-1.5275868E0,-1.2797402E0,-1.0401784E0,-8.4708756E-1,-5.7973385E0,-3.183561E0,-6.454779E-1,2.3536713E0,5.239703E-1,7.766396E0,1.1060945E1,1.4110245E0,1.6323551E0,1.9144398E0,2.2056012E0,-6.336574E-1,-5.360409E-1,-3.9443842E-1,-2.716666E-1,-1.189123E0,-2.8856125E-1,1.1748063E-1,2.6525671E0,6.823005E-1,8.2733357E-1,1.022549E0,1.2071434E0,-1.3928223E-1,-1.0056112E-1,-3.3623666E-1,-1.8561674E-2,2.2331116E0,2.997506E-1,-2.727601E-2,-4.0662654E-2,2.9944476E-1,1.3837038E-1],"categories":[],"categories_nodes":[],"categories_segments":[],"categories_sizes":[],"default_left":[0,0,0,0,0,0,0,0,0,0,0,0,0,0,0,0,0,0,0,0,0,0,0,0,0,0,0,0,0,0,0,0,0,0,0,0,0,0,0,0,0,0,0,0,0,0,0,0,0,0,0,0,0,0,0,0,0,0,0,0,0,0,0,0,0,0,0,0,0,0,0,0,0,0,0,0,0,0,0,0,0,0,0,0,0,0,0,0,0,0,0,0,0,0,0,0,0,0,0],"id":7,"left_children":[1,3,5,7,9,11,13,15,17,19,21,23,25,27,29,31,33,35,37,39,41,43,45,47,49,51,53,55,57,-1,-1,-1,-1,-1,-1,-1,-1,-1,-1,-1,-1,-1,59,61,63,65,67,69,71,73,75,-1,-1,-1,-1,-1,-1,-1,-1,-1,-1,-1,-1,-1,-1,-1,77,79,81,83,-1,85,87,-1,-1,-1,-1,-1,-1,-1,-1,89,91,-1,93,-1,-1,-1,-1,-1,-1,95,-1,97,-1,-1,-1,-1,-1],"loss_changes":[1.7695712E7,2.379494E6,1.969296E6,3.22712E5,2.5719444E5,2.7501188E5,2.39124E5,3.53715E4,3.7929E4,3.8688875E4,2.700571E4,4.2915844E4,2.19155E4,4.1797E4,1.5402E4,8.1975E2,2.85625E3,2.23275E3,2.22775E3,3.62E3,4.0870625E3,2.0212891E3,4.744662E3,5.740795E3,3.1342969E3,1.8800625E3,2.3690625E3,2.775875E3,1.60925E3,0E0,0E0,0E0,0E0,0E0,0E0,0E0,0E0,0E0,0E0,0E0,0E0,0E0,5.993281E2,1.0489844E2,1.4288867E2,5.79084E2,4.443446E2,4.3398413E2,1.0264141E3,1.11171875E1,3.5129688E2,0E0,0E0,0E0,0E0,0E0,0E0,0E0,0E0,0E0,0E0,0E0,0E0,0E0,0E0,0E0,1.103418E1,2.8714478E1,3.5553528E1,5.995581E1,0E0,5.0676758E1,3.6121094E1,0E0,0E0,0E0,0E0,0E0,0E0,0E0,0E0,1.328186E0,4.9218273E-1,0E0,1.3851685E1,0E0,0E0,0E0,0E0,0E0,0E0,2.2866535E-1,0E0,3.9831146E1,0E0,0E0,0E0,0E0,0E0],"parents":[2147483647,0,0,1,1,2,2,3,3,4,4,5,5,6,6,7,7,8,8,9,9,10,10,11,11,12,12,13,13,14,14,15,15,16,16,17,17,18,18,19,19,20,20,21,21,22,22,23,23,24,24,25,25,26,26,27,27,28,28,42,42,43,43,44,44,45,45,46,46,47,47,48,48,49,49,50,50,66,66,67,67,68,68,69,69,71,71,72,72,81,81,82,82,84,84,91,91,93,93],"right_children":[2,4,6,8,10,12,14,16,18,20,22,24,26,28,30,32,34,36,38,40,42,44,46,48,50,52,54,56,58,-1,-1,-1,-1,-1,-1,-1,-1,-1,-1,-1,-1,-1,60,62,64,66,68,70,72,74,76,-1,-1,-1,-1,-1,-1,-1,-1,-1,-1,-1,-1,-1,-1,-1,78,80,82,84,-1,86,88,-1,-1,-1,-1,-1,-1,-1,-1,90,92,-1,94,-1,-1,-1,-1,-1,-1,96,-1,98,-1,-1,-1,-1,-1],"split_conditions":[8.30648E-3,4.295342E-3,1.2341029E-2,2.164345E-3,6.436811E-3,1.0636484E-2,1.4731528E-2,1.03719E-3,3.23474E-3,5.361437E-3,7.266038E-3,9.578593E-3,1.1262851E-2,1.3548209E-2,1.5807983E-2,3.92632E-4,1.614594E-3,2.616054E-3,3.773594E-3,4.775772E-3,5.751227E-3,6.884636E-3,7.819498E-3,8.85646E-3,9.99576E-3,1.1015484E-2,1.1942747E-2,1.272054E-2,1.4008723E-2,7.1702256E0,8.119197E0,-8.596881E0,-7.849849E0,-7.289107E0,-6.6111636E0,-6.127382E0,-5.530975E0,-4.9045997E0,-4.366573E0,-3.7805965E0,-3.2347653E0,-2.7420127E0,6.075866E-3,6.619059E-3,7.123913E-3,7.522486E-3,8.01755E-3,8.712294E-3,9.213231E-3,9.718615E-3,1.0313097E-2,2.6121688E0,3.1534755E0,3.6275985E0,4.1300454E0,4.5246973E0,5.1026564E0,5.7194905E0,6.265972E0,-2.3472142E0,-2.0224788E0,-1.7649285E0,-1.5275868E0,-1.2797402E0,-1.0401784E0,-8.4708756E-1,7.639142E-3,7.891383E-3,8.128059E-3,8.395841E-3,5.239703E-1,8.96607E-3,9.409663E-3,1.4110245E0,1.6323551E0,1.9144398E0,2.2056012E0,-6.336574E-1,-5.360409E-1,-3.9443842E-1,-2.716666E-1,8.074021E-3,8.242216E-3,1.1748063E-1,8.556246E-3,6.823005E-1,8.2733357E-1,1.022549E0,1.2071434E0,-1.3928223E-1,-1.0056112E-1,8.181664E-3,-1.8561674E-2,8.457099E-3,2.997506E-1,-2.727601E-2,-4.0662654E-2,2.9944476E-1,1.3837038E-1],"split_indices":[0,0,0,0,0,0,0,0,0,0,0,0,0,0,0,0,0,0,0,0,0,0,0,0,0,0,0,0,0,0,0,0,0,0,0,0,0,0,0,0,0,0,0,0,0,0,0,0,0,0,0,0,0,0,0,0,0,0,0,0,0,0,0,0,0,0,0,0,0,0,0,0,0,0,0,0,0,0,0,0,0,0,0,0,0,0,0,0,0,0,0,0,0,0,0,0,0,0,0],"split_type":[0,0,0,0,0,0,0,0,0,0,0,0,0,0,0,0,0,0,0,0,0,0,0,0,0,0,0,0,0,0,0,0,0,0,0,0,0,0,0,0,0,0,0,0,0,0,0,0,0,0,0,0,0,0,0,0,0,0,0,0,0,0,0,0,0,0,0,0,0,0,0,0,0,0,0,0,0,0,0,0,0,0,0,0,0,0,0,0,0,0,0,0,0,0,0,0,0,0,0],"sum_hessian":[9.635E3,4.92E3,4.715E3,2.495E3,2.425E3,2.281E3,2.434E3,1.244E3,1.251E3,1.286E3,1.139E3,1.253E3,1.028E3,1.419E3,1.015E3,5.66E2,6.78E2,6.48E2,6.03E2,6.51E2,6.35E2,4.93E2,6.46E2,6.64E2,5.89E2,3.79E2,6.49E2,7.01E2,7.18E2,6.52E2,3.63E2,2.13E2,3.53E2,3.72E2,3.06E2,2.62E2,3.86E2,2.99E2,3.04E2,3.02E2,3.49E2,2.28E2,4.07E2,2.69E2,2.24E2,3.52E2,2.94E2,2.53E2,4.11E2,2.25E2,3.64E2,2.27E2,1.52E2,4.1E2,2.39E2,2.31E2,4.7E2,3.05E2,4.13E2,1.89E2,2.18E2,1.11E2,1.58E2,1.5E2,7.4E1,1.62E2,1.9E2,1.1E2,1.84E2,1.78E2,7.5E1,2.23E2,1.88E2,7.9E1,1.46E2,1.88E2,1.76E2,7.9E1,1.11E2,3.9E1,7.1E1,7.2E1,1.12E2,3.7E1,1.41E2,8.3E1,1.4E2,1.09E2,7.9E1,3.1E1,4.1E1,7.5E1,3.7E1,6.7E1,7.4E1,4.2E1,3.3E1,3.4E1,3.3E1],"tree_param":{"num_deleted":"0","num_feature":"1","num_nodes":"99","size_leaf_vector":"1"}},{"base_weights":[3.7810996E-2,-3.754854E1,3.9502274E1,-5.7572655E1,-1.732178E1,2.0409473E1,5.694713E1,-6.701623E1,-4.6148983E1,-2.7344614E1,-8.416391E0,1.2481945E1,3.221662E1,4.896648E1,6.759456E1,-7.207242E1,-6.069595E1,-5.034676E1,-4.117777E1,-3.257625E1,-2.3045925E1,-1.3651078E1,-3.859605E0,6.5955563E0,1.7529926E1,2.7090973E1,3.468807E1,4.3888298E1,5.382703E1,6.494633E1,7.4152083E0,-7.65023E0,-6.8867044E0,-6.3176575E0,-5.780498E0,-5.273805E0,-4.7830014E0,-4.320606E0,-3.89427E0,-3.4515812E0,-3.0480354E0,-2.569786E0,-2.0616108E1,-1.5583212E1,-1.1299976E1,-6.458961E0,-1.1812528E0,3.2435236E0,8.716156E0,1.4124542E1,1.9465223E1,2.4932652E0,2.8947246E0,3.2972107E0,3.7479656E0,4.2216444E0,4.7056494E0,5.131689E0,5.6016173E0,6.084472E0,6.6961365E0,-2.1750066E0,-1.9120018E0,-1.6856612E0,-1.4481186E0,-1.2558669E0,-1.027249E0,-7.835419E-1,-5.2432644E-1,-2.6294858E0,-5.3742863E-2,2.4865394E0,4.357267E0,7.473557E-1,9.9787E0,1.2709074E0,1.504116E0,1.795061E0,2.0844874E0,-3.5486096E-1,-2.2889962E0,-1.0243906E-1,1.7246914E-1,2.2491835E-1,3.065237E-1,3.7914008E-1,5.5533886E-1,9.217869E-1,1.0936009E0,-2.4426435E-1,-1.9348289E-1,-6.838246E-3,6.8869136E-2,2.3189811E-2,-1.2612095E-1,-3.942486E-2,1.385431E-2],"categories":[],"categories_nodes":[],"categories_segments":[],"categories_sizes":[],"default_left":[0,0,0,0,0,0,0,0,0,0,0,0,0,0,0,0,0,0,0,0,0,0,0,0,0,0,0,0,0,0,0,0,0,0,0,0,0,0,0,0,0,0,0,0,0,0,0,0,0,0,0,0,0,0,0,0,0,0,0,0,0,0,0,0,0,0,0,0,0,0,0,0,0,0,0,0,0,0,0,0,0,0,0,0,0,0,0,0,0,0,0,0,0,0,0,0,0],"id":8,"left_children":[1,3,5,7,9,11,13,15,17,19,21,23,25,27,29,31,33,35,37,39,41,43,45,47,49,51,53,55,57,59,-1,-1,-1,-1,-1,-1,-1,-1,-1,-1,-1,-1,61,63,65,67,69,71,73,75,77,-1,-1,-1,-1,-1,-1,-1,-1,-1,-1,-1,-1,-1,-1,-1,-1,-1,-1,79,81,83,85,-1,87,-1,-1,-1,-1,-1,89,-1,91,-1,-1,-1,-1,-1,-1,-1,-1,93,-1,-1,95,-1,-1],"loss_changes":[1.4300736E7,1.9990065E6,1.5652715E6,2.64558E5,2.1916412E5,2.0992044E5,2.05469E5,3.89585E4,2.14245E4,2.5246688E4,3.1028227E4,3.9879906E4,1.0486625E4,3.239125E4,1.3418E4,5.3525E3,7.155E2,1.124625E3,6.793125E2,1.05775E3,3.5812812E3,2.57675E3,4.85184E3,4.400213E3,4.496547E3,4.7217188E2,1.662375E3,1.6895E3,1.054375E3,2.17425E3,0E0,0E0,0E0,0E0,0E0,0E0,0E0,0E0,0E0,0E0,0E0,0E0,1.575625E2,2.1899219E2,2.2923047E2,5.5128516E2,5.6320825E2,1.940354E2,5.231504E2,1.5396094E2,5.8496875E2,0E0,0E0,0E0,0E0,0E0,0E0,0E0,0E0,0E0,0E0,0E0,0E0,0E0,0E0,0E0,0E0,0E0,0E0,3.9132935E1,4.2993244E1,1.3297241E1,4.4598877E1,0E0,3.466797E1,0E0,0E0,0E0,0E0,0E0,1.4229736E0,0E0,1.47221365E1,0E0,0E0,0E0,0E0,0E0,0E0,0E0,0E0,3.418024E0,0E0,0E0,5.7317204E0,0E0,0E0],"parents":[2147483647,0,0,1,1,2,2,3,3,4,4,5,5,6,6,7,7,8,8,9,9,10,10,11,11,12,12,13,13,14,14,15,15,16,16,17,17,18,18,19,19,20,20,21,21,22,22,23,23,24,24,25,25,26,26,27,27,28,28,29,29,42,42,43,43,44,44,45,45,46,46,47,47,48,48,49,49,50,50,69,69,70,70,71,71,72,72,74,74,80,80,82,82,91,91,94,94],"right_children":[2,4,6,8,10,12,14,16,18,20,22,24,26,28,30,32,34,36,38,40,42,44,46,48,50,52,54,56,58,60,-1,-1,-1,-1,-1,-1,-1,-1,-1,-1,-1,-1,62,64,66,68,70,72,74,76,78,-1,-1,-1,-1,-1,-1,-1,-1,-1,-1,-1,-1,-1,-1,-1,-1,-1,-1,80,82,84,86,-1,88,-1,-1,-1,-1,-1,90,-1,92,-1,-1,-1,-1,-1,-1,-1,-1,94,-1,-1,96,-1,-1],"split_conditions":[8.395841E-3,4.295342E-3,1.2341029E-2,2.346715E-3,6.264796E-3,1.0827052E-2,1.466985E-2,1.34447E-3,3.369815E-3,5.155666E-3,7.266038E-3,9.578593E-3,1.1325587E-2,1.3491761E-2,1.5917238E-2,5.46986E-4,1.808355E-3,2.871003E-3,3.836389E-3,4.701878E-3,5.68122E-3,6.825678E-3,7.819498E-3,8.909965E-3,1.0071595E-2,1.1084997E-2,1.1942747E-2,1.3088665E-2,1.4008723E-2,1.5143081E-2,7.4152083E0,-7.65023E0,-6.8867044E0,-6.3176575E0,-5.780498E0,-5.273805E0,-4.7830014E0,-4.320606E0,-3.89427E0,-3.4515812E0,-3.0480354E0,-2.569786E0,6.004845E-3,6.49111E-3,7.0133E-3,7.522486E-3,8.074021E-3,8.712294E-3,9.213231E-3,9.786788E-3,1.0458273E-2,2.4932652E0,2.8947246E0,3.2972107E0,3.7479656E0,4.2216444E0,4.7056494E0,5.131689E0,5.6016173E0,6.084472E0,6.6961365E0,-2.1750066E0,-1.9120018E0,-1.6856612E0,-1.4481186E0,-1.2558669E0,-1.027249E0,-7.835419E-1,-5.2432644E-1,7.891383E-3,8.128059E-3,8.636366E-3,8.85646E-3,7.473557E-1,9.409663E-3,1.2709074E0,1.504116E0,1.795061E0,2.0844874E0,-3.5486096E-1,8.01755E-3,-1.0243906E-1,8.30648E-3,2.2491835E-1,3.065237E-1,3.7914008E-1,5.5533886E-1,9.217869E-1,1.0936009E0,-2.4426435E-1,-1.9348289E-1,8.181664E-3,6.8869136E-2,2.3189811E-2,8.242216E-3,-3.942486E-2,1.385431E-2],"split_indices":[0,0,0,0,0,0,0,0,0,0,0,0,0,0,0,0,0,0,0,0,0,0,0,0,0,0,0,0,0,0,0,0,0,0,0,0,0,0,0,0,0,0,0,0,0,0,0,0,0,0,0,0,0,0,0,0,0,0,0,0,0,0,0,0,0,0,0,0,0,0,0,0,0,0,0,0,0,0,0,0,0,0,0,0,0,0,0,0,0,0,0,0,0,0,0,0,0],"split_type":[0,0,0,0,0,0,0,0,0,0,0,0,0,0,0,0,0,0,0,0,0,0,0,0,0,0,0,0,0,0,0,0,0,0,0,0,0,0,0,0,0,0,0,0,0,0,0,0,0,0,0,0,0,0,0,0,0,0,0,0,0,0,0,0,0,0,0,0,0,0,0,0,0,0,0,0,0,0,0,0,0,0,0,0,0,0,0,0,0,0,0,0,0,0,0,0,0],"sum_hessian":[9.639E3,4.937E3,4.702E3,2.48E3,2.457E3,2.246E3,2.456E3,1.355E3,1.125E3,1.155E3,1.302E3,1.345E3,9.01E2,1.407E3,1.049E3,7.47E2,6.08E2,6.05E2,5.2E2,5.18E2,6.37E2,6.05E2,6.97E2,6.22E2,7.23E2,2.97E2,6.04E2,6.93E2,7.14E2,7.55E2,2.94E2,3.04E2,4.43E2,3.16E2,2.92E2,3E2,3.05E2,2.63E2,2.57E2,2.61E2,2.57E2,3E2,3.37E2,3.29E2,2.76E2,3.53E2,3.44E2,2.42E2,3.8E2,2.65E2,4.58E2,1.44E2,1.53E2,3.82E2,2.22E2,4.63E2,2.3E2,3.44E2,3.7E2,2.59E2,4.96E2,1.84E2,1.53E2,1.46E2,1.83E2,1.19E2,1.57E2,1.63E2,1.9E2,1.5E2,1.94E2,1.46E2,9.6E1,1.95E2,1.85E2,1.1E2,1.55E2,2.25E2,2.33E2,3.8E1,1.12E2,3.6E1,1.58E2,1.07E2,3.9E1,6.8E1,2.8E1,1.09E2,7.6E1,7.4E1,3.8E1,1.18E2,4E1,3.9E1,7.9E1,3.9E1,4E1],"tree_param":{"num_deleted":"0","num_feature":"1","num_nodes":"97","size_leaf_vector":"1"}},{"base_weights":[-8.999416E-2,-3.4747383E1,3.4843224E1,-5.315718E1,-1.8072294E1,1.6499435E1,5.0910076E1,-6.2213654E1,-4.4887245E1,-2.7429485E1,-9.789357E0,9.575021E0,2.6825071E1,4.2522835E1,5.9744347E1,-6.725798E0,-5.8569655E0,-4.9003307E1,-4.0087097E1,-3.1262415E1,-2.2658813E1,-1.4137436E1,-4.7031484E0,4.5302167E0,1.4501183E1,2.121386E1,2.917695E1,3.873692E1,4.681086E1,5.37587E0,6.3016235E1,-5.0897937E0,-4.6049824E0,-4.1674323E0,-3.691056E0,-3.3105168E0,-2.837193E0,-2.3906362E0,-2.0128334E0,-1.6379328E1,-1.147733E1,-6.450062E0,-2.2106202E0,1.6345136E0,6.853372E0,1.182741E1,1.6228495E1,1.9418738E0,2.3172185E0,2.705347E0,3.0988688E0,3.5406826E0,4.0156803E0,4.375428E0,4.869369E0,6.1201096E0,6.8314605E0,-1.7363386E0,-1.5274082E0,-1.2166079E0,-9.8371553E-1,-7.782217E-1,-5.5427322E0,-2.755121E0,-8.77597E-2,5.6409466E-1,2.273716E0,5.417474E0,7.8099375E0,1.0167024E0,1.244034E0,1.5046481E0,1.7209514E0,-6.22502E-1,-5.116308E-1,-4.0856028E-1,-2.3756495E0,3.2878587E-1,9.961141E-2,1.8811186E-1,3.6952052E-1,4.296938E-1,5.733635E-1,6.9681275E-1,8.24745E-1,-2.6470658E-1,-2.0509084E-1,4.9488872E-2,1.6702976E-2],"categories":[],"categories_nodes":[],"categories_segments":[],"categories_sizes":[],"default_left":[0,0,0,0,0,0,0,0,0,0,0,0,0,0,0,0,0,0,0,0,0,0,0,0,0,0,0,0,0,0,0,0,0,0,0,0,0,0,0,0,0,0,0,0,0,0,0,0,0,0,0,0,0,0,0,0,0,0,0,0,0,0,0,0,0,0,0,0,0,0,0,0,0,0,0,0,0,0,0,0,0,0,0,0,0,0,0,0,0],"id":9,"left_children":[1,3,5,7,9,11,13,15,17,19,21,23,25,27,29,-1,-1,31,33,35,37,39,41,43,45,47,49,51,53,-1,55,-1,-1,-1,-1,-1,-1,-1,-1,57,59,61,63,65,67,69,71,-1,-1,-1,-1,-1,-1,-1,-1,-1,-1,-1,-1,-1,-1,-1,73,75,-1,77,79,81,83,-1,-1,-1,-1,-1,-1,-1,85,87,-1,-1,-1,-1,-1,-1,-1,-1,-1,-1,-1],"loss_changes":[1.1608136E7,1.4765585E6,1.406481E6,1.684955E5,1.9558669E5,1.5925738E5,1.860315E5,1.60785E4,2.1725E4,2.0978312E4,2.9612164E4,3.316078E4,1.119225E4,1.943725E4,2.0838E4,0E0,0E0,1.243E3,1.28025E3,2.5495625E3,1.1982812E3,4.1237188E3,2.6853643E3,4.4421846E3,2.9301406E3,4.9216406E2,1.5776875E3,1.89275E3,1.37425E3,0E0,3.45525E3,0E0,0E0,0E0,0E0,0E0,0E0,0E0,0E0,1.5896875E2,2.576328E2,3.9683398E2,1.8412097E2,2.0124487E2,4.6177344E2,1.4727734E2,2.1416406E2,0E0,0E0,0E0,0E0,0E0,0E0,0E0,0E0,0E0,0E0,0E0,0E0,0E0,0E0,0E0,3.215869E1,8.218225E1,0E0,1.1058186E1,9.629236E1,2.8503418E1,2.282129E1,0E0,0E0,0E0,0E0,0E0,0E0,0E0,7.2633057E0,1.905582E0,0E0,0E0,0E0,0E0,0E0,0E0,0E0,0E0,0E0,0E0,0E0],"parents":[2147483647,0,0,1,1,2,2,3,3,4,4,5,5,6,6,7,7,8,8,9,9,10,10,11,11,12,12,13,13,14,14,17,17,18,18,19,19,20,20,21,21,22,22,23,23,24,24,25,25,26,26,27,27,28,28,30,30,39,39,40,40,41,41,42,42,43,43,44,44,45,45,46,46,62,62,63,63,65,65,66,66,67,67,68,68,76,76,77,77],"right_children":[2,4,6,8,10,12,14,16,18,20,22,24,26,28,30,-1,-1,32,34,36,38,40,42,44,46,48,50,52,54,-1,56,-1,-1,-1,-1,-1,-1,-1,-1,58,60,62,64,66,68,70,72,-1,-1,-1,-1,-1,-1,-1,-1,-1,-1,-1,-1,-1,-1,-1,74,76,-1,78,80,82,84,-1,-1,-1,-1,-1,-1,-1,86,88,-1,-1,-1,-1,-1,-1,-1,-1,-1,-1,-1],"split_conditions":[8.181664E-3,3.957266E-3,1.2156439E-2,1.88247E-3,5.946857E-3,1.0636484E-2,1.43508E-2,8.45513E-4,2.976674E-3,5.025074E-3,7.123913E-3,9.409663E-3,1.1084997E-2,1.3369406E-2,1.5143081E-2,-6.725798E0,-5.8569655E0,2.564794E-3,3.630411E-3,4.591009E-3,5.598762E-3,6.555793E-3,7.755615E-3,8.777687E-3,9.927115E-3,1.0892816E-2,1.1558124E-2,1.2548727E-2,1.3715509E-2,5.37587E0,1.6168602E-2,-5.0897937E0,-4.6049824E0,-4.1674323E0,-3.691056E0,-3.3105168E0,-2.837193E0,-2.3906362E0,-2.0128334E0,6.264796E-3,6.949388E-3,7.396481E-3,8.074021E-3,8.395841E-3,9.034992E-3,9.578593E-3,1.0254182E-2,1.9418738E0,2.3172185E0,2.705347E0,3.0988688E0,3.5406826E0,4.0156803E0,4.375428E0,4.869369E0,6.1201096E0,6.8314605E0,-1.7363386E0,-1.5274082E0,-1.2166079E0,-9.8371553E-1,-7.782217E-1,7.522486E-3,7.819498E-3,-8.77597E-2,8.30648E-3,8.712294E-3,8.85646E-3,9.166829E-3,1.0167024E0,1.244034E0,1.5046481E0,1.7209514E0,-6.22502E-1,-5.116308E-1,-4.0856028E-1,7.95394E-3,8.242216E-3,9.961141E-2,1.8811186E-1,3.6952052E-1,4.296938E-1,5.733635E-1,6.9681275E-1,8.24745E-1,-2.6470658E-1,-2.0509084E-1,4.9488872E-2,1.6702976E-2],"split_indices":[0,0,0,0,0,0,0,0,0,0,0,0,0,0,0,0,0,0,0,0,0,0,0,0,0,0,0,0,0,0,0,0,0,0,0,0,0,0,0,0,0,0,0,0,0,0,0,0,0,0,0,0,0,0,0,0,0,0,0,0,0,0,0,0,0,0,0,0,0,0,0,0,0,0,0,0,0,0,0,0,0,0,0,0,0,0,0,0,0],"split_type":[0,0,0,0,0,0,0,0,0,0,0,0,0,0,0,0,0,0,0,0,0,0,0,0,0,0,0,0,0,0,0,0,0,0,0,0,0,0,0,0,0,0,0,0,0,0,0,0,0,0,0,0,0,0,0,0,0,0,0,0,0,0,0,0,0,0,0,0,0,0,0,0,0,0,0,0,0,0,0,0,0,0,0,0,0,0,0,0,0],"sum_hessian":[9.586E3,4.812E3,4.774E3,2.286E3,2.526E3,2.23E3,2.544E3,1.088E3,1.198E3,1.185E3,1.341E3,1.336E3,8.94E2,1.308E3,1.236E3,4.49E2,6.39E2,6.4E2,5.58E2,6.54E2,5.31E2,7.22E2,6.19E2,6.61E2,6.75E2,2.67E2,6.27E2,7E2,6.08E2,4.43E2,7.93E2,3.8E2,2.6E2,3.64E2,1.94E2,3.93E2,2.61E2,3.5E2,1.81E2,3.89E2,3.33E2,3.63E2,2.56E2,2.95E2,3.66E2,2.68E2,4.07E2,1.45E2,1.22E2,2.96E2,3.31E2,2.17E2,4.83E2,2.41E2,3.67E2,6E2,1.93E2,1.98E2,1.91E2,2.3E2,1.03E2,1.44E2,2.19E2,1.81E2,7.5E1,1.11E2,1.84E2,1.49E2,2.17E2,7.7E1,1.91E2,1.92E2,2.15E2,7.9E1,1.4E2,3.8E1,1.43E2,7.3E1,3.8E1,1.46E2,3.8E1,3.6E1,1.13E2,8E1,1.37E2,7.4E1,6.9E1,3.5E1,3.8E1],"tree_param":{"num_deleted":"0","num_feature":"1","num_nodes":"89","size_leaf_vector":"1"}},{"base_weights":[1.52700255E-2,-3.0446905E1,3.211168E1,-4.628127E1,-1.3988613E1,1.6298153E1,4.6162254E1,-5.4986584E1,-3.7967346E1,-2.14115E1,-6.504633E0,8.698041E0,2.4143776E1,3.9170647E1,5.41221E1,-5.984064E1,-5.096558E1,-4.2007633E1,-3.3482845E1,-2.5664051E1,-1.7628286E1,-1.00694685E1,-2.3924792E0,4.685819E0,1.26025505E1,1.9139366E1,2.725493E1,3.5589516E1,4.3416877E0,5.1176346E1,5.863033E0,-6.385392E0,-5.7561116E0,-5.3509784E0,-4.833931E0,-4.4426847E0,-3.9931653E0,-3.5533063E0,-3.1798043E0,-2.6803033E0,-2.3225343E0,-1.9224215E1,-1.5337948E0,-1.1767474E1,-7.5553164E0,-4.3828874E0,-6.594841E-1,2.6308925E0,6.467125E0,1.0126548E0,1.3790967E1,1.7723216E0,2.1215968E0,2.5396113E0,2.9543884E0,3.2838504E0,3.7063859E0,4.815506E0,5.325023E0,-2.016705E0,-1.7624668E0,-1.2892823E0,-1.0950823E0,-8.412078E-1,-6.8899626E-1,-5.1828856E0,-3.152576E-1,-1.6407512E0,-9.090364E-2,1.6496371E0,3.3606184E0,4.748726E-1,7.00065E0,1.2768041E0,1.4762303E0,-5.8600265E-1,-4.5167255E-1,-2.0695858E-1,-1.4041616E-1,1.1575936E-1,-2.3458038E-1,1.4381926E-1,1.9942825E-1,3.1140888E-1,3.985819E-1,6.499099E-1,7.439695E-1,-2.3498455E-2,4.3034293E-2,-7.086682E-2,-4.6709757E-2,2.5709048E-2,-3.8826104E-2],"categories":[],"categories_nodes":[],"categories_segments":[],"categories_sizes":[],"default_left":[0,0,0,0,0,0,0,0,0,0,0,0,0,0,0,0,0,0,0,0,0,0,0,0,0,0,0,0,0,0,0,0,0,0,0,0,0,0,0,0,0,0,0,0,0,0,0,0,0,0,0,0,0,0,0,0,0,0,0,0,0,0,0,0,0,0,0,0,0,0,0,0,0,0,0,0,0,0,0,0,0,0,0,0,0,0,0,0,0,0,0,0,0],"id":10,"left_children":[1,3,5,7,9,11,13,15,17,19,21,23,25,27,29,31,33,35,37,39,41,43,45,47,49,51,53,55,-1,57,-1,-1,-1,-1,-1,-1,-1,-1,-1,-1,-1,59,-1,61,63,65,67,69,71,-1,73,-1,-1,-1,-1,-1,-1,-1,-1,-1,-1,-1,-1,-1,-1,75,-1,77,79,81,83,-1,85,-1,-1,-1,-1,-1,-1,87,89,-1,-1,-1,-1,-1,-1,-1,-1,-1,91,-1,-1],"loss_changes":[9.356842E6,1.278931E6,1.0346495E6,1.78995E5,1.3368731E5,1.3061306E5,1.35173E5,2.076275E4,2.183975E4,1.8998375E4,1.7581547E4,1.7423938E4,1.62778125E4,1.84815E4,1.2285E4,1.328625E3,1.916875E3,1.595875E3,9.875625E2,9.5240625E2,2.0554531E3,2.6560898E3,1.9253057E3,2.0035566E3,1.522875E3,8.502969E2,2.070625E3,1.703125E3,0E0,1.84675E3,0E0,0E0,0E0,0E0,0E0,0E0,0E0,0E0,0E0,0E0,0E0,2.1009375E2,0E0,2.09875E2,9.139453E1,2.3956494E2,1.6722963E2,1.7919641E2,2.3721387E2,0E0,1.8809375E2,0E0,0E0,0E0,0E0,0E0,0E0,0E0,0E0,0E0,0E0,0E0,0E0,0E0,0E0,4.3901367E1,0E0,8.2543335E0,5.6984544E0,5.29364E0,1.0244873E1,0E0,7.5390625E-1,0E0,0E0,0E0,0E0,0E0,0E0,8.817846E0,1.003149E1,0E0,0E0,0E0,0E0,0E0,0E0,0E0,0E0,0E0,8.608415E0,0E0,0E0],"parents":[2147483647,0,0,1,1,2,2,3,3,4,4,5,5,6,6,7,7,8,8,9,9,10,10,11,11,12,12,13,13,14,14,15,15,16,16,17,17,18,18,19,19,20,20,21,21,22,22,23,23,24,24,25,25,26,26,27,27,29,29,41,41,43,43,44,44,45,45,46,46,47,47,48,48,50,50,65,65,67,67,68,68,69,69,70,70,72,72,79,79,80,80,90,90],"right_children":[2,4,6,8,10,12,14,16,18,20,22,24,26,28,30,32,34,36,38,40,42,44,46,48,50,52,54,56,-1,58,-1,-1,-1,-1,-1,-1,-1,-1,-1,-1,-1,60,-1,62,64,66,68,70,72,-1,74,-1,-1,-1,-1,-1,-1,-1,-1,-1,-1,-1,-1,-1,-1,76,-1,78,80,82,84,-1,86,-1,-1,-1,-1,-1,-1,88,90,-1,-1,-1,-1,-1,-1,-1,-1,-1,92,-1,-1],"split_conditions":[8.395841E-3,4.354843E-3,1.2273652E-2,2.164345E-3,6.383376E-3,1.0458273E-2,1.4463706E-2,1.03719E-3,3.29688E-3,5.302376E-3,7.467339E-3,9.409663E-3,1.1152043E-2,1.3491761E-2,1.5691416E-2,3.28199E-4,1.56395E-3,2.662358E-3,3.773594E-3,4.960663E-3,5.946857E-3,7.0133E-3,7.891383E-3,8.909965E-3,9.786788E-3,1.0892816E-2,1.1762549E-2,1.272054E-2,4.3416877E0,1.5014148E-2,5.863033E0,-6.385392E0,-5.7561116E0,-5.3509784E0,-4.833931E0,-4.4426847E0,-3.9931653E0,-3.5533063E0,-3.1798043E0,-2.6803033E0,-2.3225343E0,5.68122E-3,-1.5337948E0,6.619059E-3,7.196909E-3,7.692156E-3,8.074021E-3,8.636366E-3,9.034992E-3,1.0126548E0,1.0143627E-2,1.7723216E0,2.1215968E0,2.5396113E0,2.9543884E0,3.2838504E0,3.7063859E0,4.815506E0,5.325023E0,-2.016705E0,-1.7624668E0,-1.2892823E0,-1.0950823E0,-8.412078E-1,-6.8899626E-1,7.5871E-3,-3.152576E-1,7.95394E-3,8.181664E-3,8.556246E-3,8.85646E-3,4.748726E-1,9.213231E-3,1.2768041E0,1.4762303E0,-5.8600265E-1,-4.5167255E-1,-2.0695858E-1,-1.4041616E-1,8.128059E-3,8.242216E-3,1.4381926E-1,1.9942825E-1,3.1140888E-1,3.985819E-1,6.499099E-1,7.439695E-1,-2.3498455E-2,4.3034293E-2,-7.086682E-2,8.30648E-3,2.5709048E-2,-3.8826104E-2],"split_indices":[0,0,0,0,0,0,0,0,0,0,0,0,0,0,0,0,0,0,0,0,0,0,0,0,0,0,0,0,0,0,0,0,0,0,0,0,0,0,0,0,0,0,0,0,0,0,0,0,0,0,0,0,0,0,0,0,0,0,0,0,0,0,0,0,0,0,0,0,0,0,0,0,0,0,0,0,0,0,0,0,0,0,0,0,0,0,0,0,0,0,0,0,0],"split_type":[0,0,0,0,0,0,0,0,0,0,0,0,0,0,0,0,0,0,0,0,0,0,0,0,0,0,0,0,0,0,0,0,0,0,0,0,0,0,0,0,0,0,0,0,0,0,0,0,0,0,0,0,0,0,0,0,0,0,0,0,0,0,0,0,0,0,0,0,0,0,0,0,0,0,0,0,0,0,0,0,0,0,0,0,0,0,0,0,0,0,0,0,0],"sum_hessian":[9.568E3,4.909E3,4.659E3,2.501E3,2.408E3,2.193E3,2.466E3,1.219E3,1.282E3,1.208E3,1.2E3,1.115E3,1.078E3,1.316E3,1.15E3,5.46E2,6.73E2,6.7E2,6.12E2,5.66E2,6.42E2,6.42E2,5.58E2,5.51E2,5.64E2,4.16E2,6.62E2,7.19E2,5.97E2,7.03E2,4.47E2,1.88E2,3.58E2,3.32E2,3.41E2,3E2,3.7E2,2.67E2,3.45E2,3.79E2,1.87E2,3.74E2,2.68E2,3.81E2,2.61E2,2.59E2,2.99E2,2.57E2,2.94E2,1.86E2,3.78E2,2.53E2,1.63E2,3.72E2,2.9E2,2.59E2,4.6E2,2.96E2,4.07E2,2.28E2,1.46E2,1.54E2,2.27E2,1.09E2,1.52E2,1.55E2,1.04E2,1.09E2,1.9E2,1.11E2,1.46E2,7.2E1,2.22E2,1.91E2,1.87E2,7.3E1,8.2E1,3.6E1,7.3E1,7.8E1,1.12E2,7.2E1,3.9E1,1.09E2,3.7E1,1.11E2,1.11E2,3.7E1,4.1E1,3.1E1,8.1E1,4.3E1,3.8E1],"tree_param":{"num_deleted":"0","num_feature":"1","num_nodes":"93","size_leaf_vector":"1"}},{"base_weights":[2.3670356E-1,-2.7894526E1,2.8309069E1,-4.3107433E1,-1.4161491E1,1.3177906E1,4.0483253E1,-5.0616024E1,-3.6300262E1,-2.1351301E1,-6.9775763E0,6.7470074E0,1.9948923E1,3.3108963E1,4.750657E1,-5.529157E0,-4.7923172E1,-3.942017E1,-3.1909714E1,-2.5171686E1,-1.770512E1,-1.1059674E1,-3.9669063E0,3.8502076E0,1.0758797E1,1.557875E1,2.30458E1,2.9392857E1,3.6087517E1,4.5188053E1,5.351172E0,-4.978779E0,-4.579225E0,-4.205688E0,-3.7745883E0,-3.3657951E0,-3.0461555E0,-2.6568592E0,-2.2861078E0,-1.9229134E0,-1.5517216E0,-1.2559912E1,-9.284966E0,-6.341235E0,-2.2855315E0,1.9438096E0,5.547187E0,9.153399E0,1.1771111E0,1.422783E0,1.693907E0,2.1355836E0,2.4698374E0,2.7743282E0,3.08304E0,3.4250991E0,3.7979462E0,4.2697873E0,4.7465477E0,-1.3145627E0,-1.1408511E0,-9.995535E-1,-8.169884E-1,-6.73086E-1,-5.204709E-1,-3.4240303E0,-9.3206847E-1,1.1685133E0,2.6337397E0,4.4334188E0,6.3958864E0,8.228505E-1,9.645339E-1,-3.6154398E-1,-2.448828E-1,-2.0030592E-1,-6.4461535E-1,7.884125E-2,1.5376639E0,2.303053E-1,2.9645813E-1,3.9879283E-1,4.808851E-1,5.4673547E-1,6.6084635E-1,-9.099619E-2,-3.6055905E-1,2.0606914E-1,9.87214E-2,-1.741684E-2,-5.4727133E-2],"categories":[],"categories_nodes":[],"categories_segments":[],"categories_sizes":[],"default_left":[0,0,0,0,0,0,0,0,0,0,0,0,0,0,0,0,0,0,0,0,0,0,0,0,0,0,0,0,0,0,0,0,0,0,0,0,0,0,0,0,0,0,0,0,0,0,0,0,0,0,0,0,0,0,0,0,0,0,0,0,0,0,0,0,0,0,0,0,0,0,0,0,0,0,0,0,0,0,0,0,0,0,0,0,0,0,0,0,0,0,0],"id":11,"left_children":[1,3,5,7,9,11,13,15,17,19,21,23,25,27,29,-1,31,33,35,37,39,41,43,45,47,49,51,53,55,57,-1,-1,-1,-1,-1,-1,-1,-1,-1,-1,-1,59,61,63,65,67,69,71,-1,-1,-1,-1,-1,-1,-1,-1,-1,-1,-1,-1,-1,-1,-1,-1,-1,73,75,77,79,81,83,-1,-1,-1,-1,-1,85,-1,87,-1,-1,-1,-1,-1,-1,-1,89,-1,-1,-1,-1],"loss_changes":[7.5464695E6,9.965615E5,8.8054075E5,1.138805E5,1.2949497E5,9.278772E4,1.356755E5,1.087275E4,1.5056625E4,1.7022312E4,1.5404473E4,1.2695574E4,1.3702656E4,1.328425E4,1.644775E4,0E0,4.57625E2,1.4675E3,2.405625E2,1.3615E3,1.8523125E3,1.3024844E3,2.8798057E3,2.0532207E3,6.3820703E2,5.565547E2,1.165E3,5.2475E2,1.1835E3,3.55375E3,0E0,0E0,0E0,0E0,0E0,0E0,0E0,0E0,0E0,0E0,0E0,4.290625E1,1.1483594E2,9.781445E1,6.532388E2,1.5846228E2,2.901953E2,3.4414062E0,0E0,0E0,0E0,0E0,0E0,0E0,0E0,0E0,0E0,0E0,0E0,0E0,0E0,0E0,0E0,0E0,0E0,3.426587E1,5.9049286E1,1.8992981E1,1.0567749E1,5.743164E0,1.175293E0,0E0,0E0,0E0,0E0,0E0,1.1430138E1,0E0,1.8694473E1,0E0,0E0,0E0,0E0,0E0,0E0,0E0,2.5843925E0,0E0,0E0,0E0,0E0],"parents":[2147483647,0,0,1,1,2,2,3,3,4,4,5,5,6,6,7,7,8,8,9,9,10,10,11,11,12,12,13,13,14,14,16,16,17,17,18,18,19,19,20,20,21,21,22,22,23,23,24,24,25,25,26,26,27,27,28,28,29,29,41,41,42,42,43,43,44,44,45,45,46,46,47,47,65,65,66,66,67,67,68,68,69,69,70,70,76,76,78,78,86,86],"right_children":[2,4,6,8,10,12,14,16,18,20,22,24,26,28,30,-1,32,34,36,38,40,42,44,46,48,50,52,54,56,58,-1,-1,-1,-1,-1,-1,-1,-1,-1,-1,-1,60,62,64,66,68,70,72,-1,-1,-1,-1,-1,-1,-1,-1,-1,-1,-1,-1,-1,-1,-1,-1,-1,74,76,78,80,82,84,-1,-1,-1,-1,-1,86,-1,88,-1,-1,-1,-1,-1,-1,-1,90,-1,-1,-1,-1],"split_conditions":[8.242216E-3,4.028822E-3,1.2012089E-2,1.88247E-3,6.146462E-3,1.0254182E-2,1.414893E-2,7.06886E-4,3.124675E-3,5.025074E-3,7.062743E-3,9.409663E-3,1.1015484E-2,1.2957857E-2,1.5807983E-2,-5.529157E0,1.34447E-3,2.346715E-3,3.501056E-3,4.650668E-3,5.68122E-3,6.619059E-3,7.5871E-3,8.85646E-3,9.786788E-3,1.0636484E-2,1.1492341E-2,1.2484851E-2,1.3607742E-2,1.5014148E-2,5.351172E0,-4.978779E0,-4.579225E0,-4.205688E0,-3.7745883E0,-3.3657951E0,-3.0461555E0,-2.6568592E0,-2.2861078E0,-1.9229134E0,-1.5517216E0,6.436811E-3,6.884636E-3,7.467339E-3,7.95394E-3,8.556246E-3,9.106627E-3,9.578593E-3,1.1771111E0,1.422783E0,1.693907E0,2.1355836E0,2.4698374E0,2.7743282E0,3.08304E0,3.4250991E0,3.7979462E0,4.2697873E0,4.7465477E0,-1.3145627E0,-1.1408511E0,-9.995535E-1,-8.169884E-1,-6.73086E-1,-5.204709E-1,7.891383E-3,8.01755E-3,8.395841E-3,8.712294E-3,8.96607E-3,9.166829E-3,8.228505E-1,9.645339E-1,-3.6154398E-1,-2.448828E-1,-2.0030592E-1,8.128059E-3,7.884125E-2,8.457099E-3,2.303053E-1,2.9645813E-1,3.9879283E-1,4.808851E-1,5.4673547E-1,6.6084635E-1,-9.099619E-2,8.181664E-3,2.0606914E-1,9.87214E-2,-1.741684E-2,-5.4727133E-2],"split_indices":[0,0,0,0,0,0,0,0,0,0,0,0,0,0,0,0,0,0,0,0,0,0,0,0,0,0,0,0,0,0,0,0,0,0,0,0,0,0,0,0,0,0,0,0,0,0,0,0,0,0,0,0,0,0,0,0,0,0,0,0,0,0,0,0,0,0,0,0,0,0,0,0,0,0,0,0,0,0,0,0,0,0,0,0,0,0,0,0,0,0,0],"split_type":[0,0,0,0,0,0,0,0,0,0,0,0,0,0,0,0,0,0,0,0,0,0,0,0,0,0,0,0,0,0,0,0,0,0,0,0,0,0,0,0,0,0,0,0,0,0,0,0,0,0,0,0,0,0,0,0,0,0,0,0,0,0,0,0,0,0,0,0,0,0,0,0,0,0,0,0,0,0,0,0,0,0,0,0,0,0,0,0,0,0,0],"sum_hessian":[9.554E3,4.772E3,4.782E3,2.263E3,2.509E3,2.133E3,2.649E3,1.073E3,1.19E3,1.253E3,1.256E3,1.095E3,1.038E3,1.295E3,1.354E3,3.85E2,6.88E2,6.91E2,4.99E2,6.09E2,6.44E2,5.32E2,7.24E2,6.37E2,4.58E2,4.33E2,6.05E2,5.81E2,7.14E2,9.83E2,3.71E2,3.55E2,3.33E2,2.59E2,4.32E2,2.16E2,2.83E2,3.73E2,2.36E2,3.75E2,2.69E2,2.85E2,2.47E2,2.99E2,4.25E2,3.01E2,3.36E2,1.81E2,2.77E2,2.23E2,2.1E2,3.06E2,2.99E2,2.8E2,3.01E2,3.72E2,3.42E2,4.79E2,5.04E2,1.82E2,1.03E2,1.46E2,1.01E2,2.19E2,8E1,2.3E2,1.95E2,1.43E2,1.58E2,1.48E2,1.88E2,6.9E1,1.12E2,1.9E2,4E1,4E1,1.55E2,7.2E1,7.1E1,8.3E1,7.5E1,7.3E1,7.5E1,4E1,1.48E2,7.9E1,7.6E1,3.5E1,3.6E1,3.9E1,3.7E1],"tree_param":{"num_deleted":"0","num_feature":"1","num_nodes":"91","size_leaf_vector":"1"}},{"base_weights":[-4.0088218E-2,-2.4310009E1,2.6218143E1,-3.760927E1,-1.0888626E1,1.402573E1,3.755785E1,-4.401487E1,-3.0024551E1,-1.7310328E1,-4.824656E0,8.475568E0,2.1029623E1,3.2338043E1,4.4098915E1,-4.7341297E1,-3.973913E1,-3.3594892E0,-2.7171549E1,-2.0415874E1,-1.3895439E1,-8.807229E0,-2.3433042E0,4.727144E0,1.1482679E1,1.8189594E1,2.3513123E1,2.9422869E1,3.5603166E0,4.2249193E0,4.8717976E0,-5.1921954E0,-4.575022E0,-4.144161E0,-3.792197E0,-2.8999126E0,-2.5803926E0,-2.1742263E0,-1.8795986E0,-1.5651716E0,-1.2698193E1,-9.600648E0,-6.9917E-1,-3.884339E0,-3.340427E-1,2.795379E0,5.9590893E0,9.341498E0,1.2815272E1,1.5985621E0,1.9322678E0,2.2247317E0,2.4717233E0,2.7797523E0,3.1502123E0,-1.3512094E0,-1.1554439E0,-1.0374795E0,-8.9389485E-1,-4.583074E0,-2.9062614E0,-1.3931382E0,2.1090558E-1,2.0075836E0,3.593862E-1,5.0381154E-1,7.013929E-1,8.440992E-1,9.8965836E-1,1.2060546E0,1.3673357E0,-4.985178E-1,-4.2672166E-1,-3.2881978E-1,-2.6485863E-1,-1.494191E-1,-1.169377E-1,1.542729E-1,4.7322236E-2,1.4118294E-1,2.2712064E-1,2.4223788E-1,-1.691675E-2,4.116099E-3,3.0829757E-2],"categories":[],"categories_nodes":[],"categories_segments":[],"categories_sizes":[],"default_left":[0,0,0,0,0,0,0,0,0,0,0,0,0,0,0,0,0,0,0,0,0,0,0,0,0,0,0,0,0,0,0,0,0,0,0,0,0,0,0,0,0,0,0,0,0,0,0,0,0,0,0,0,0,0,0,0,0,0,0,0,0,0,0,0,0,0,0,0,0,0,0,0,0,0,0,0,0,0,0,0,0,0,0,0,0],"id":12,"left_children":[1,3,5,7,9,11,13,15,17,19,21,23,25,27,29,31,33,-1,35,37,39,41,43,45,47,49,51,53,-1,-1,-1,-1,-1,-1,-1,-1,-1,-1,-1,-1,55,57,-1,59,61,63,65,67,69,-1,-1,-1,-1,-1,-1,-1,-1,-1,-1,71,73,75,77,79,-1,-1,-1,-1,-1,-1,-1,-1,-1,-1,-1,-1,-1,81,-1,-1,-1,83,-1,-1,-1],"loss_changes":[6.1217615E6,8.90635E5,6.3739775E5,1.2048025E5,9.672381E4,8.631359E4,8.017575E4,1.741925E4,1.08115E4,1.25166875E4,1.2628535E4,1.3956727E4,6.505625E3,1.16405E4,6.981375E3,3.148875E3,2.84625E2,0E0,8.63875E2,9.449375E2,1.0166094E3,6.4014844E2,2.444813E3,1.3041475E3,1.8462188E3,8.473594E2,2.4421875E2,1.52375E3,0E0,0E0,0E0,0E0,0E0,0E0,0E0,0E0,0E0,0E0,0E0,0E0,1.6876172E2,8.091211E1,0E0,2.9216748E2,1.988342E2,1.2991602E2,2.9302344E2,5.0421875E1,1.08390625E2,0E0,0E0,0E0,0E0,0E0,0E0,0E0,0E0,0E0,0E0,1.162207E1,9.8914795E0,8.983154E-1,3.3140936E0,1.4383514E1,0E0,0E0,0E0,0E0,0E0,0E0,0E0,0E0,0E0,0E0,0E0,0E0,0E0,5.4183E0,0E0,0E0,0E0,1.9664879E0,0E0,0E0,0E0],"parents":[2147483647,0,0,1,1,2,2,3,3,4,4,5,5,6,6,7,7,8,8,9,9,10,10,11,11,12,12,13,13,14,14,15,15,16,16,18,18,19,19,20,20,21,21,22,22,23,23,24,24,25,25,26,26,27,27,40,40,41,41,43,43,44,44,45,45,46,46,47,47,48,48,59,59,60,60,61,61,62,62,63,63,77,77,81,81],"right_children":[2,4,6,8,10,12,14,16,18,20,22,24,26,28,30,32,34,-1,36,38,40,42,44,46,48,50,52,54,-1,-1,-1,-1,-1,-1,-1,-1,-1,-1,-1,-1,56,58,-1,60,62,64,66,68,70,-1,-1,-1,-1,-1,-1,-1,-1,-1,-1,72,74,76,78,80,-1,-1,-1,-1,-1,-1,-1,-1,-1,-1,-1,-1,-1,82,-1,-1,-1,84,-1,-1,-1],"split_conditions":[8.556246E-3,4.354843E-3,1.2407468E-2,2.346715E-3,6.383376E-3,1.0758302E-2,1.466985E-2,1.34447E-3,3.23474E-3,5.424427E-3,7.196909E-3,9.578593E-3,1.1492341E-2,1.3607742E-2,1.5917238E-2,3.28199E-4,1.808355E-3,-3.3594892E0,3.694348E-3,4.882196E-3,5.811765E-3,6.949388E-3,7.95394E-3,8.96607E-3,1.0071595E-2,1.1015484E-2,1.1942747E-2,1.3088665E-2,3.5603166E0,4.2249193E0,4.8717976E0,-5.1921954E0,-4.575022E0,-4.144161E0,-3.792197E0,-2.8999126E0,-2.5803926E0,-2.1742263E0,-1.8795986E0,-1.5651716E0,6.146462E-3,6.619059E-3,-6.9917E-1,7.639142E-3,8.128059E-3,8.777687E-3,9.277062E-3,9.786788E-3,1.0458273E-2,1.5985621E0,1.9322678E0,2.2247317E0,2.4717233E0,2.7797523E0,3.1502123E0,-1.3512094E0,-1.1554439E0,-1.0374795E0,-8.9389485E-1,7.396481E-3,7.755615E-3,8.074021E-3,8.457099E-3,8.636366E-3,3.593862E-1,5.0381154E-1,7.013929E-1,8.440992E-1,9.8965836E-1,1.2060546E0,1.3673357E0,-4.985178E-1,-4.2672166E-1,-3.2881978E-1,-2.6485863E-1,-1.494191E-1,-1.169377E-1,8.395841E-3,4.7322236E-2,1.4118294E-1,2.2712064E-1,8.181664E-3,-1.691675E-2,4.116099E-3,3.0829757E-2],"split_indices":[0,0,0,0,0,0,0,0,0,0,0,0,0,0,0,0,0,0,0,0,0,0,0,0,0,0,0,0,0,0,0,0,0,0,0,0,0,0,0,0,0,0,0,0,0,0,0,0,0,0,0,0,0,0,0,0,0,0,0,0,0,0,0,0,0,0,0,0,0,0,0,0,0,0,0,0,0,0,0,0,0,0,0,0,0],"split_type":[0,0,0,0,0,0,0,0,0,0,0,0,0,0,0,0,0,0,0,0,0,0,0,0,0,0,0,0,0,0,0,0,0,0,0,0,0,0,0,0,0,0,0,0,0,0,0,0,0,0,0,0,0,0,0,0,0,0,0,0,0,0,0,0,0,0,0,0,0,0,0,0,0,0,0,0,0,0,0,0,0,0,0,0,0],"sum_hessian":[9.604E3,4.991E3,4.613E3,2.506E3,2.485E3,2.224E3,2.389E3,1.356E3,1.15E3,1.206E3,1.279E3,1.242E3,9.82E2,1.332E3,1.057E3,7.57E2,5.99E2,5.06E2,6.44E2,6.29E2,5.77E2,4.9E2,7.89E2,5.54E2,6.88E2,4.62E2,5.2E2,7.09E2,6.23E2,7.62E2,2.95E2,1.87E2,5.7E2,2.98E2,3.01E2,2.67E2,3.77E2,3.39E2,2.9E2,2.29E2,3.48E2,3.38E2,1.52E2,4.46E2,3.43E2,2.17E2,3.37E2,2.67E2,4.21E2,1.62E2,3E2,2.63E2,2.57E2,4.06E2,3.03E2,1.97E2,1.51E2,1.49E2,1.89E2,2.58E2,1.88E2,1.16E2,2.27E2,1.11E2,1.06E2,1.83E2,1.54E2,1.08E2,1.59E2,2.32E2,1.89E2,1.07E2,1.51E2,7.1E1,1.17E2,7.6E1,4E1,1.88E2,3.9E1,3.6E1,7.5E1,1.48E2,4E1,3.7E1,1.11E2],"tree_param":{"num_deleted":"0","num_feature":"1","num_nodes":"85","size_leaf_vector":"1"}},{"base_weights":[-3.5912308E-1,-2.3348362E1,2.2468126E1,-3.486086E1,-1.1969487E1,1.02814045E1,3.297109E1,-4.1194298E1,-2.9522652E1,-1.7735876E1,-6.6040893E0,5.2980266E0,1.6595049E1,2.70377E1,3.8828964E1,-4.4932218E0,-3.9068916E1,-3.2776333E1,-2.6613354E1,-2.0283005E1,-1.4600753E1,-8.973992E0,-3.3250325E0,2.5112898E0,8.771918E0,1.3202242E1,1.904209E1,2.444762E1,2.9823236E0,3.5055165E0,4.1520233E1,-3.99954E0,-3.651796E0,-3.3987927E0,-3.1148717E0,-2.8234394E0,-2.4836378E0,-2.2394083E0,-1.902152E0,-1.5972513E0,-1.3241009E0,-1.0740332E1,-7.687527E0,-4.341788E0,-1.879892E0,1.0287898E0,4.4146743E0,6.887184E0,9.663251E0,1.195331E0,1.4639038E0,1.7236389E0,1.9964188E0,2.298955E0,2.5837476E0,4.0140886E0,4.663366E0,-1.1383305E0,-9.9612087E-1,-8.570356E-1,-6.8948877E-1,-4.8903868E-1,-3.4769008E-1,-2.5509122E-1,-1.5542167E-1,3.4544426E-1,2.22943E0,3.7502274E-1,5.0292057E-1,5.594742E-1,7.156849E-1,8.666765E-1,1.0260719E0,-9.422897E-2,8.5794526E-1,1.8297997E-1,2.3629813E-1,-4.1476943E-2,-2.5126515E-2,1.0518577E0,4.322341E-2,-1.1259326E-2,-6.3422066E-3,7.759973E-2,1.3148941E-1,2.0621805E-3,-3.0948536E-3],"categories":[],"categories_nodes":[],"categories_segments":[],"categories_sizes":[],"default_left":[0,0,0,0,0,0,0,0,0,0,0,0,0,0,0,0,0,0,0,0,0,0,0,0,0,0,0,0,0,0,0,0,0,0,0,0,0,0,0,0,0,0,0,0,0,0,0,0,0,0,0,0,0,0,0,0,0,0,0,0,0,0,0,0,0,0,0,0,0,0,0,0,0,0,0,0,0,0,0,0,0,0,0,0,0,0,0],"id":13,"left_children":[1,3,5,7,9,11,13,15,17,19,21,23,25,27,29,-1,31,33,35,37,39,41,43,45,47,49,51,53,-1,-1,55,-1,-1,-1,-1,-1,-1,-1,-1,-1,-1,57,59,61,63,65,67,69,71,-1,-1,-1,-1,-1,-1,-1,-1,-1,-1,-1,-1,-1,-1,-1,-1,73,75,-1,-1,-1,-1,-1,-1,77,79,-1,-1,81,-1,83,-1,-1,85,-1,-1,-1,-1],"loss_changes":[5.0441955E6,6.2693825E5,6.1698875E5,7.924975E4,7.444578E4,7.020105E4,8.897125E4,6.87225E3,1.1386125E4,8.975094E3,9.683969E3,1.2078996E4,7.9264062E3,8.577875E3,1.1757875E4,0E0,1.9375E2,1.383125E2,1.2834688E3,1.2730938E3,7.6589844E2,1.564875E3,7.6471875E2,1.9565864E3,8.674844E2,5.715078E2,6.0496875E2,7.7190625E2,0E0,0E0,3.446125E3,0E0,0E0,0E0,0E0,0E0,0E0,0E0,0E0,0E0,0E0,3.8402344E1,2.3691016E2,1.2913525E2,4.389441E1,3.2084708E2,1.0526953E2,2.3391602E1,1.3433594E2,0E0,0E0,0E0,0E0,0E0,0E0,0E0,0E0,0E0,0E0,0E0,0E0,0E0,0E0,0E0,0E0,5.663942E1,3.2548828E0,0E0,0E0,0E0,0E0,0E0,0E0,1.116199E0,9.121231E0,0E0,0E0,2.5664717E-1,0E0,4.7119904E0,0E0,0E0,4.708219E-2,0E0,0E0,0E0,0E0],"parents":[2147483647,0,0,1,1,2,2,3,3,4,4,5,5,6,6,7,7,8,8,9,9,10,10,11,11,12,12,13,13,14,14,16,16,17,17,18,18,19,19,20,20,21,21,22,22,23,23,24,24,25,25,26,26,27,27,30,30,41,41,42,42,43,43,44,44,45,45,46,46,47,47,48,48,65,65,66,66,73,73,74,74,77,77,79,79,82,82],"right_children":[2,4,6,8,10,12,14,16,18,20,22,24,26,28,30,-1,32,34,36,38,40,42,44,46,48,50,52,54,-1,-1,56,-1,-1,-1,-1,-1,-1,-1,-1,-1,-1,58,60,62,64,66,68,70,72,-1,-1,-1,-1,-1,-1,-1,-1,-1,-1,-1,-1,-1,-1,-1,-1,74,76,-1,-1,-1,-1,-1,-1,78,80,-1,-1,82,-1,84,-1,-1,86,-1,-1,-1,-1],"split_conditions":[8.074021E-3,4.028822E-3,1.2012089E-2,1.808355E-3,6.004845E-3,1.0390514E-2,1.4220489E-2,7.06886E-4,2.871003E-3,5.084326E-3,7.196909E-3,9.341282E-3,1.1084997E-2,1.3143161E-2,1.5195185E-2,-4.4932218E0,1.502477E-3,2.432411E-3,3.436783E-3,4.411195E-3,5.532335E-3,6.49111E-3,7.692156E-3,8.85646E-3,9.718615E-3,1.0758302E-2,1.1383226E-2,1.2607433E-2,2.9823236E0,3.5055165E0,1.624051E-2,-3.99954E0,-3.651796E0,-3.3987927E0,-3.1148717E0,-2.8234394E0,-2.4836378E0,-2.2394083E0,-1.902152E0,-1.5972513E0,-1.3241009E0,6.264796E-3,6.825678E-3,7.522486E-3,7.819498E-3,8.556246E-3,9.106627E-3,9.409663E-3,9.99576E-3,1.195331E0,1.4639038E0,1.7236389E0,1.9964188E0,2.298955E0,2.5837476E0,4.0140886E0,4.663366E0,-1.1383305E0,-9.9612087E-1,-8.570356E-1,-6.8948877E-1,-4.8903868E-1,-3.4769008E-1,-2.5509122E-1,-1.5542167E-1,8.30648E-3,8.636366E-3,3.7502274E-1,5.0292057E-1,5.594742E-1,7.156849E-1,8.666765E-1,1.0260719E0,8.242216E-3,8.457099E-3,1.8297997E-1,2.3629813E-1,8.128059E-3,-2.5126515E-2,8.395841E-3,4.322341E-2,-1.1259326E-2,8.181664E-3,7.759973E-2,1.3148941E-1,2.0621805E-3,-3.0948536E-3],"split_indices":[0,0,0,0,0,0,0,0,0,0,0,0,0,0,0,0,0,0,0,0,0,0,0,0,0,0,0,0,0,0,0,0,0,0,0,0,0,0,0,0,0,0,0,0,0,0,0,0,0,0,0,0,0,0,0,0,0,0,0,0,0,0,0,0,0,0,0,0,0,0,0,0,0,0,0,0,0,0,0,0,0,0,0,0,0,0,0],"split_type":[0,0,0,0,0,0,0,0,0,0,0,0,0,0,0,0,0,0,0,0,0,0,0,0,0,0,0,0,0,0,0,0,0,0,0,0,0,0,0,0,0,0,0,0,0,0,0,0,0,0,0,0,0,0,0,0,0,0,0,0,0,0,0,0,0,0,0,0,0,0,0,0,0,0,0,0,0,0,0,0,0,0,0,0,0,0,0],"sum_hessian":[9.61E3,4.788E3,4.822E3,2.379E3,2.409E3,2.233E3,2.589E3,1.085E3,1.294E3,1.16E3,1.249E3,1.249E3,9.84E2,1.289E3,1.3E3,3.86E2,6.99E2,6.06E2,6.88E2,6.37E2,5.23E2,7.24E2,5.25E2,6.94E2,5.55E2,4.15E2,5.69E2,6.73E2,6.16E2,5.47E2,7.53E2,5.02E2,1.97E2,3.36E2,2.7E2,3.52E2,3.36E2,2.32E2,4.05E2,2.55E2,2.68E2,3.02E2,4.22E2,3.07E2,2.18E2,3.91E2,3.03E2,1.81E2,3.74E2,2.27E2,1.88E2,1.99E2,3.7E2,3.37E2,3.36E2,6E2,1.53E2,1.58E2,1.44E2,1.95E2,2.27E2,1.85E2,1.22E2,6.9E1,1.49E2,2.5E2,1.41E2,1.49E2,1.54E2,3.5E1,1.46E2,1.46E2,2.28E2,1.35E2,1.15E2,3.9E1,1.02E2,1.02E2,3.3E1,7.8E1,3.7E1,3.3E1,6.9E1,4E1,3.8E1,3.3E1,3.6E1],"tree_param":{"num_deleted":"0","num_feature":"1","num_nodes":"87","size_leaf_vector":"1"}},{"base_weights":[-4.3273635E-2,-1.9953384E1,2.1272165E1,-3.0557999E1,-8.994063E0,1.0417508E1,2.9739798E1,-3.5859425E1,-2.4661201E1,-1.3558356E1,-3.5700104E0,6.658694E0,1.6359333E1,2.4293127E1,3.4689842E1,-3.9697308E1,-3.329601E1,-2.6944382E1,-2.162369E1,-1.649766E1,-1.0828829E1,-5.495424E0,-1.0377774E0,3.6977339E0,9.232917E0,1.4252814E1,1.7997793E0,2.191152E1,2.6314466E1,3.0961347E0,3.696186E1,-4.2966676E0,-3.8206773E0,-3.501104E0,-3.138076E0,-2.8430178E0,-2.5370598E0,-2.248183E0,-2.0389354E0,-1.7602819E0,-1.4801677E0,-1.1910036E1,-9.4260305E-1,-6.574565E0,-3.9696465E0,-2.3833533E-1,-3.9854223E-1,2.3354177E0,5.06609E0,7.803098E0,1.0165482E1,1.2893836E0,1.5254798E0,2.066237E0,2.2917504E0,2.5162277E0,2.8109517E0,3.579797E0,4.1936684E0,-1.2613229E0,-1.1130164E0,-7.25946E-1,-5.8618367E-1,-4.4173548E-1,-3.620531E-1,-1.1064099E0,-5.3931266E-2,1.5041056E0,3.2391176E-1,4.5882407E-1,5.552184E-1,6.8711126E-1,8.142846E-1,9.709382E-1,1.0903772E0,-9.820279E-1,-1.3185476E-1,1.5441424E-1,-1.1404597E-1,8.320763E-2,1.7465229E0,-1.1595535E-1,-7.82759E-2,-6.7760184E-2,9.781536E-2,1.5320621E-1,2.180691E-1,-2.910369E-2,8.599417E-3,1.642155E-2,-2.7561491E-2],"categories":[],"categories_nodes":[],"categories_segments":[],"categories_sizes":[],"default_left":[0,0,0,0,0,0,0,0,0,0,0,0,0,0,0,0,0,0,0,0,0,0,0,0,0,0,0,0,0,0,0,0,0,0,0,0,0,0,0,0,0,0,0,0,0,0,0,0,0,0,0,0,0,0,0,0,0,0,0,0,0,0,0,0,0,0,0,0,0,0,0,0,0,0,0,0,0,0,0,0,0,0,0,0,0,0,0,0,0,0,0],"id":14,"left_children":[1,3,5,7,9,11,13,15,17,19,21,23,25,27,29,31,33,35,37,39,41,43,45,47,49,51,-1,53,55,-1,57,-1,-1,-1,-1,-1,-1,-1,-1,-1,-1,59,-1,61,63,-1,65,67,69,71,73,-1,-1,-1,-1,-1,-1,-1,-1,-1,-1,-1,-1,-1,-1,75,77,79,-1,-1,-1,-1,-1,-1,-1,81,-1,83,-1,-1,85,-1,-1,87,-1,-1,-1,-1,89,-1,-1],"loss_changes":[4.083507E6,5.779165E5,4.2681125E5,7.81445E4,6.0556656E4,4.5408203E4,6.9526E4,1.1753125E4,7.7395625E3,1.0483797E4,5.454964E3,9.49357E3,2.4666719E3,5.42175E3,1.041875E4,9.265625E2,1.5389375E3,8.71125E2,9.240625E1,9.3528125E2,9.373047E2,1.02109375E3,4.1621777E2,1.0749585E3,8.113867E2,2.7989844E2,0E0,2.5278125E2,6.7634375E2,0E0,3.379875E3,0E0,0E0,0E0,0E0,0E0,0E0,0E0,0E0,0E0,0E0,7.184375E1,0E0,1.3854785E2,2.5583008E1,0E0,8.0440186E1,2.1599756E2,4.188623E1,2.890918E1,2.9160156E1,0E0,0E0,0E0,0E0,0E0,0E0,0E0,0E0,0E0,0E0,0E0,0E0,0E0,0E0,1.5548553E0,5.0657356E1,2.3798065E1,0E0,0E0,0E0,0E0,0E0,0E0,0E0,1.6393738E0,0E0,3.4472878E1,0E0,0E0,7.1806946E0,0E0,0E0,2.542852E0,0E0,0E0,0E0,0E0,4.9988327E0,0E0,0E0],"parents":[2147483647,0,0,1,1,2,2,3,3,4,4,5,5,6,6,7,7,8,8,9,9,10,10,11,11,12,12,13,13,14,14,15,15,16,16,17,17,18,18,19,19,20,20,21,21,22,22,23,23,24,24,25,25,27,27,28,28,30,30,41,41,43,43,44,44,46,46,47,47,48,48,49,49,50,50,65,65,66,66,67,67,75,75,77,77,80,80,83,83,88,88],"right_children":[2,4,6,8,10,12,14,16,18,20,22,24,26,28,30,32,34,36,38,40,42,44,46,48,50,52,-1,54,56,-1,58,-1,-1,-1,-1,-1,-1,-1,-1,-1,-1,60,-1,62,64,-1,66,68,70,72,74,-1,-1,-1,-1,-1,-1,-1,-1,-1,-1,-1,-1,-1,-1,76,78,80,-1,-1,-1,-1,-1,-1,-1,82,-1,84,-1,-1,86,-1,-1,88,-1,-1,-1,-1,90,-1,-1],"split_conditions":[8.457099E-3,4.354843E-3,1.2071919E-2,2.281177E-3,6.555793E-3,1.0758302E-2,1.414893E-2,9.78073E-4,3.436783E-3,5.424427E-3,7.639142E-3,9.578593E-3,1.1325587E-2,1.3017239E-2,1.5081684E-2,2.47148E-4,1.614594E-3,2.871003E-3,3.957266E-3,4.960663E-3,6.075866E-3,7.196909E-3,7.891383E-3,9.034992E-3,1.0071595E-2,1.1015484E-2,1.7997793E0,1.2548727E-2,1.3715509E-2,3.0961347E0,1.624051E-2,-4.2966676E0,-3.8206773E0,-3.501104E0,-3.138076E0,-2.8430178E0,-2.5370598E0,-2.248183E0,-2.0389354E0,-1.7602819E0,-1.4801677E0,5.751227E-3,-9.4260305E-1,6.884636E-3,7.396481E-3,-2.3833533E-1,8.074021E-3,8.777687E-3,9.277062E-3,9.718615E-3,1.051786E-2,1.2893836E0,1.5254798E0,2.066237E0,2.2917504E0,2.5162277E0,2.8109517E0,3.579797E0,4.1936684E0,-1.2613229E0,-1.1130164E0,-7.25946E-1,-5.8618367E-1,-4.4173548E-1,-3.620531E-1,8.01755E-3,8.395841E-3,8.556246E-3,3.2391176E-1,4.5882407E-1,5.552184E-1,6.8711126E-1,8.142846E-1,9.709382E-1,1.0903772E0,7.95394E-3,-1.3185476E-1,8.30648E-3,-1.1404597E-1,8.320763E-2,8.712294E-3,-1.1595535E-1,-7.82759E-2,8.128059E-3,9.781536E-2,1.5320621E-1,2.180691E-1,-2.910369E-2,8.242216E-3,1.642155E-2,-2.7561491E-2],"split_indices":[0,0,0,0,0,0,0,0,0,0,0,0,0,0,0,0,0,0,0,0,0,0,0,0,0,0,0,0,0,0,0,0,0,0,0,0,0,0,0,0,0,0,0,0,0,0,0,0,0,0,0,0,0,0,0,0,0,0,0,0,0,0,0,0,0,0,0,0,0,0,0,0,0,0,0,0,0,0,0,0,0,0,0,0,0,0,0,0,0,0,0],"split_type":[0,0,0,0,0,0,0,0,0,0,0,0,0,0,0,0,0,0,0,0,0,0,0,0,0,0,0,0,0,0,0,0,0,0,0,0,0,0,0,0,0,0,0,0,0,0,0,0,0,0,0,0,0,0,0,0,0,0,0,0,0,0,0,0,0,0,0,0,0,0,0,0,0,0,0,0,0,0,0,0,0,0,0,0,0,0,0,0,0,0,0],"sum_hessian":[9.62E3,4.974E3,4.646E3,2.527E3,2.447E3,2.037E3,2.609E3,1.328E3,1.199E3,1.328E3,1.119E3,1.249E3,7.88E2,1.245E3,1.364E3,5.26E2,8.02E2,6.8E2,5.19E2,6.37E2,6.91E2,6.35E2,4.84E2,5.82E2,6.67E2,3.49E2,4.39E2,5.77E2,6.68E2,5.22E2,8.42E2,1.56E2,3.7E2,4.14E2,3.88E2,3.41E2,3.39E2,2.96E2,2.23E2,3.8E2,2.57E2,3.86E2,3.05E2,3.7E2,2.65E2,1.55E2,3.29E2,2.93E2,2.89E2,2.67E2,4E2,1.54E2,1.95E2,2.67E2,3.1E2,4.16E2,2.52E2,6.89E2,1.53E2,1.95E2,1.91E2,1.84E2,1.86E2,1.11E2,1.54E2,1.07E2,2.22E2,1.54E2,1.39E2,1.51E2,1.38E2,7.7E1,1.9E2,2.56E2,1.44E2,7.1E1,3.6E1,1.87E2,3.5E1,4.2E1,1.12E2,3.5E1,3.6E1,1.48E2,3.9E1,7.8E1,3.4E1,3.7E1,1.11E2,7.2E1,3.9E1],"tree_param":{"num_deleted":"0","num_feature":"1","num_nodes":"91","size_leaf_vector":"1"}},{"base_weights":[-6.812039E-2,-1.7722115E1,1.9173977E1,-2.7267181E1,-7.8787146E0,1.0062945E1,2.768054E1,-3.201588E1,-2.1817049E1,-1.2312475E1,-3.246919E0,5.776574E0,1.5162677E1,2.3950975E1,3.2794006E1,-3.490997E1,-2.9213408E1,-2.4013943E1,-1.9304895E1,-1.5251528E1,-1.0443872E1,-5.4301114E0,-1.0032314E0,3.3034656E0,8.024607E0,1.2893136E1,1.6956135E1,2.188977E1,2.6723068E0,3.1477188E1,3.6577084E0,-3.86792E0,-3.3773625E0,-3.0597727E0,-2.7753098E0,-2.4770172E0,-2.210212E0,-2.101794E0,-1.867375E0,-1.6379791E0,-1.4497405E0,-1.1566747E1,-9.001534E0,-6.5143433E0,-4.3027673E0,-1.9031951E0,-1.2378566E-1,2.0017672E0,4.1780787E0,6.8099113E0,9.10824E0,1.1004384E0,1.3464602E0,1.6186632E0,1.7822478E0,2.0753229E0,2.3276222E0,2.9169655E0,3.2023365E0,-1.2458723E0,-1.1018692E0,-9.5087063E-1,-8.305014E-1,-7.077582E-1,-5.8781236E-1,-4.7569156E-1,-3.5440126E-1,-2.8889412E-1,-1.5584946E0,-9.186619E-2,-9.336306E-3,1.2476494E0,2.7014976E0,3.7814555E0,4.8928866E-1,5.9681076E-1,7.312753E0,8.340831E-1,9.4197035E-1,-1.7686161E-1,-1.1532911E-1,-8.462187E-2,4.1626055E-2,1.1208874E0,1.4382681E-1,2.978695E-1,2.049403E-1,3.102481E-1,3.9158878E-1,8.3793515E-1,6.9872874E-1,1.3107887E-1,-3.1327972E-1,1.2569563E-1,9.545243E-2,-1.2718201E-2,2.569155E-1,-2.5046859E-2,-4.21206E-2,3.0666186E-2,1.9803053E-2],"categories":[],"categories_nodes":[],"categories_segments":[],"categories_sizes":[],"default_left":[0,0,0,0,0,0,0,0,0,0,0,0,0,0,0,0,0,0,0,0,0,0,0,0,0,0,0,0,0,0,0,0,0,0,0,0,0,0,0,0,0,0,0,0,0,0,0,0,0,0,0,0,0,0,0,0,0,0,0,0,0,0,0,0,0,0,0,0,0,0,0,0,0,0,0,0,0,0,0,0,0,0,0,0,0,0,0,0,0,0,0,0,0,0,0,0,0,0,0,0,0],"id":15,"left_children":[1,3,5,7,9,11,13,15,17,19,21,23,25,27,29,31,33,35,37,39,41,43,45,47,49,51,53,55,-1,57,-1,-1,-1,-1,-1,-1,-1,-1,-1,-1,-1,59,61,63,65,67,69,71,73,75,77,-1,-1,-1,-1,-1,-1,-1,-1,-1,-1,-1,-1,-1,-1,-1,-1,-1,79,-1,81,83,85,87,-1,-1,89,-1,-1,-1,-1,91,-1,93,-1,-1,-1,-1,-1,-1,-1,95,97,-1,-1,-1,99,-1,-1,-1,-1],"loss_changes":[3.2516075E6,4.68813E5,3.5468775E5,6.4884125E4,5.045872E4,4.828714E4,4.4374625E4,9.94575E3,6.0653125E3,6.7385625E3,5.8922275E3,6.667285E3,3.8924219E3,7.2601875E3,3.810375E3,1.5205625E3,5.5175E2,3.5903125E2,2.0973438E2,1.7604688E2,1.1445625E3,7.175762E2,4.7068866E2,6.462637E2,7.672344E2,3.3753906E2,8.55E1,7.665E2,0E0,6.125E0,0E0,0E0,0E0,0E0,0E0,0E0,0E0,0E0,0E0,0E0,0E0,7.292578E1,4.184375E1,6.9125E1,8.720703E1,9.539514E1,2.7465286E1,1.1957861E2,7.87417E1,8.376953E1,3.0859375E-1,0E0,0E0,0E0,0E0,0E0,0E0,0E0,0E0,0E0,0E0,0E0,0E0,0E0,0E0,0E0,0E0,0E0,1.6691467E1,0E0,8.526169E0,1.1424713E0,1.5586548E1,8.387939E0,0E0,0E0,5.3251953E0,0E0,0E0,0E0,0E0,1.1187761E1,0E0,4.5269012E-1,0E0,0E0,0E0,0E0,0E0,0E0,0E0,3.8350205E0,6.401882E-1,0E0,0E0,0E0,1.7068768E-1,0E0,0E0,0E0,0E0],"parents":[2147483647,0,0,1,1,2,2,3,3,4,4,5,5,6,6,7,7,8,8,9,9,10,10,11,11,12,12,13,13,14,14,15,15,16,16,17,17,18,18,19,19,20,20,21,21,22,22,23,23,24,24,25,25,26,26,27,27,29,29,41,41,42,42,43,43,44,44,45,45,46,46,47,47,48,48,49,49,50,50,68,68,70,70,71,71,72,72,73,73,76,76,81,81,83,83,91,91,92,92,96,96],"right_children":[2,4,6,8,10,12,14,16,18,20,22,24,26,28,30,32,34,36,38,40,42,44,46,48,50,52,54,56,-1,58,-1,-1,-1,-1,-1,-1,-1,-1,-1,-1,-1,60,62,64,66,68,70,72,74,76,78,-1,-1,-1,-1,-1,-1,-1,-1,-1,-1,-1,-1,-1,-1,-1,-1,-1,80,-1,82,84,86,88,-1,-1,90,-1,-1,-1,-1,92,-1,94,-1,-1,-1,-1,-1,-1,-1,96,98,-1,-1,-1,100,-1,-1,-1,-1],"split_conditions":[8.556246E-3,4.411195E-3,1.2407468E-2,2.346715E-3,6.49111E-3,1.0705105E-2,1.4731528E-2,1.233714E-3,3.436783E-3,5.227614E-3,7.522486E-3,9.578593E-3,1.1443196E-2,1.3715509E-2,1.598625E-2,2.47148E-4,1.745998E-3,3.124675E-3,3.694348E-3,4.701878E-3,5.946857E-3,7.0133E-3,8.01755E-3,8.96607E-3,1.0143627E-2,1.0892816E-2,1.1942747E-2,1.3143161E-2,2.6723068E0,1.5014148E-2,3.6577084E0,-3.86792E0,-3.3773625E0,-3.0597727E0,-2.7753098E0,-2.4770172E0,-2.210212E0,-2.101794E0,-1.867375E0,-1.6379791E0,-1.4497405E0,5.481989E-3,6.264796E-3,6.761685E-3,7.325374E-3,7.639142E-3,8.074021E-3,8.777687E-3,9.341282E-3,9.786788E-3,1.0313097E-2,1.1004384E0,1.3464602E0,1.6186632E0,1.7822478E0,2.0753229E0,2.3276222E0,2.9169655E0,3.2023365E0,-1.2458723E0,-1.1018692E0,-9.5087063E-1,-8.305014E-1,-7.077582E-1,-5.8781236E-1,-4.7569156E-1,-3.5440126E-1,-2.8889412E-1,7.891383E-3,-9.186619E-2,8.457099E-3,8.712294E-3,8.909965E-3,9.034992E-3,4.8928866E-1,5.9681076E-1,9.854582E-3,8.340831E-1,9.4197035E-1,-1.7686161E-1,-1.1532911E-1,8.242216E-3,4.1626055E-2,8.636366E-3,1.4382681E-1,2.978695E-1,2.049403E-1,3.102481E-1,3.9158878E-1,8.3793515E-1,6.9872874E-1,8.128059E-3,8.395841E-3,1.2569563E-1,9.545243E-2,-1.2718201E-2,8.181664E-3,-2.5046859E-2,-4.21206E-2,3.0666186E-2,1.9803053E-2],"split_indices":[0,0,0,0,0,0,0,0,0,0,0,0,0,0,0,0,0,0,0,0,0,0,0,0,0,0,0,0,0,0,0,0,0,0,0,0,0,0,0,0,0,0,0,0,0,0,0,0,0,0,0,0,0,0,0,0,0,0,0,0,0,0,0,0,0,0,0,0,0,0,0,0,0,0,0,0,0,0,0,0,0,0,0,0,0,0,0,0,0,0,0,0,0,0,0,0,0,0,0,0,0],"split_type":[0,0,0,0,0,0,0,0,0,0,0,0,0,0,0,0,0,0,0,0,0,0,0,0,0,0,0,0,0,0,0,0,0,0,0,0,0,0,0,0,0,0,0,0,0,0,0,0,0,0,0,0,0,0,0,0,0,0,0,0,0,0,0,0,0,0,0,0,0,0,0,0,0,0,0,0,0,0,0,0,0,0,0,0,0,0,0,0,0,0,0,0,0,0,0,0,0,0,0,0,0],"sum_hessian":[9.57E3,4.991E3,4.579E3,2.533E3,2.458E3,2.212E3,2.367E3,1.351E3,1.182E3,1.255E3,1.203E3,1.203E3,1.009E3,1.372E3,9.95E2,6.59E2,6.92E2,6.26E2,5.56E2,4.85E2,7.7E2,6.09E2,5.94E2,5.74E2,6.29E2,4.49E2,5.6E2,7.92E2,5.8E2,7.45E2,2.5E2,1.45E2,5.14E2,3.45E2,3.47E2,4.4E2,1.86E2,1.41E2,4.15E2,1.86E2,2.99E2,4.29E2,3.41E2,3.08E2,3.01E2,2.93E2,3.01E2,2.32E2,3.42E2,3E2,3.29E2,1.09E2,3.4E2,3.07E2,2.53E2,4.44E2,3.48E2,1.53E2,5.92E2,1.55E2,2.74E2,1.9E2,1.51E2,1.58E2,1.5E2,1.85E2,1.16E2,7.4E1,2.19E2,3.7E1,2.64E2,1.13E2,1.19E2,2.24E2,1.18E2,1.17E2,1.83E2,1.03E2,2.26E2,1.42E2,7.7E1,2.25E2,3.9E1,7.2E1,4.1E1,8.1E1,3.8E1,4.1E1,1.83E2,3.7E1,1.46E2,1.16E2,1.09E2,3.6E1,3.6E1,3.8E1,7.8E1,7.1E1,3.8E1,4E1,3.8E1],"tree_param":{"num_deleted":"0","num_feature":"1","num_nodes":"101","size_leaf_vector":"1"}},{"base_weights":[9.5765196E-2,-1.6241714E1,1.6819748E1,-2.4775043E1,-7.662848E0,7.9948645E0,2.3973824E1,-2.9632973E1,-2.054032E1,-1.1779347E1,-3.6509008E0,4.8941927E0,1.2879163E1,1.9469248E1,2.8138489E1,-3.2164894E1,-2.7464563E1,-2.2948378E1,-1.8259176E1,-1.4051146E1,-9.70616E0,-5.9868155E0,-1.803407E0,2.7885354E0,7.224348E0,1.0423801E1,1.4260326E1,1.7548204E1,2.1604025E1,2.514059E0,2.983282E1,-3.486979E0,-3.096845E0,-2.8471332E0,-2.5951357E0,-2.4001968E0,-2.1449142E0,-1.9425815E0,-1.7080119E0,-1.517507E0,-1.2978305E0,-1.0576635E1,-8.531175E0,-6.556856E-1,-5.1694164E0,-3.443136E-1,-9.5789987E-1,1.4011683E0,3.6359744E0,6.0239047E-1,8.1135035E-1,9.384963E-1,1.1373558E0,1.3728667E0,1.5405002E0,1.6798538E0,1.8652862E0,2.0878353E0,2.3149014E0,2.8818936E0,3.345705E0,-1.1017505E0,-9.76402E-1,-9.119463E-1,-8.035272E-1,-5.564623E-1,-4.728864E-1,-1.3277992E0,-2.0685825E-1,1.1290495E0,2.0735624E-1,3.2206516E0,4.6493807E-1,-1.5932116E-1,-1.0657848E0,-3.3763996E-1,1.4059049E-2,1.6977599E0,7.69424E-1,2.8316972E-1,3.4623557E-1,-1.135771E0,-8.185706E-2,-8.873233E-2,-8.263298E-2,1.2670694E-1,2.0709245E-1,2.3447316E-2,1.0042852E0,-8.620969E-2,-1.268573E-1,-3.3732112E-2,1.556497E-2,1.212666E-1,7.487813E-2],"categories":[],"categories_nodes":[],"categories_segments":[],"categories_sizes":[],"default_left":[0,0,0,0,0,0,0,0,0,0,0,0,0,0,0,0,0,0,0,0,0,0,0,0,0,0,0,0,0,0,0,0,0,0,0,0,0,0,0,0,0,0,0,0,0,0,0,0,0,0,0,0,0,0,0,0,0,0,0,0,0,0,0,0,0,0,0,0,0,0,0,0,0,0,0,0,0,0,0,0,0,0,0,0,0,0,0,0,0,0,0,0,0,0,0],"id":16,"left_children":[1,3,5,7,9,11,13,15,17,19,21,23,25,27,29,31,33,35,37,39,41,43,45,47,49,51,53,55,57,-1,59,-1,-1,-1,-1,-1,-1,-1,-1,-1,-1,61,63,-1,65,-1,67,69,71,-1,-1,-1,-1,-1,-1,-1,-1,-1,-1,-1,-1,-1,-1,-1,-1,-1,-1,73,75,77,-1,79,-1,-1,81,83,-1,85,87,-1,-1,89,-1,91,-1,-1,-1,-1,93,-1,-1,-1,-1,-1,-1],"loss_changes":[2.6175215E6,3.5456788E5,2.9868412E5,4.936075E4,3.9890703E4,3.2058688E4,4.8491E4,5.3150625E3,6.7275E3,5.4824844E3,5.2801143E3,6.353408E3,2.642375E3,4.7840312E3,6.137625E3,5.86875E2,1.9803125E2,4.7875E2,5.939375E2,4.8673438E2,5.510664E2,2.181836E2,9.477739E2,7.9909033E2,6.0863477E2,1.892539E2,1.0740625E2,2.39875E2,1.8040625E2,0E0,2.1995625E3,0E0,0E0,0E0,0E0,0E0,0E0,0E0,0E0,0E0,0E0,1.9960938E1,6.076172E0,0E0,1.3208496E1,0E0,1.2585098E2,4.5414246E1,1.6348389E2,0E0,0E0,0E0,0E0,0E0,0E0,0E0,0E0,0E0,0E0,0E0,0E0,0E0,0E0,0E0,0E0,0E0,0E0,1.9442688E1,6.9089007E0,3.7143997E1,0E0,1.8775146E1,0E0,0E0,1.7693481E0,1.3306928E1,0E0,8.947739E0,1.446431E1,0E0,0E0,3.2313538E0,0E0,4.5480504E0,0E0,0E0,0E0,0E0,3.4045868E0,0E0,0E0,0E0,0E0,0E0,0E0],"parents":[2147483647,0,0,1,1,2,2,3,3,4,4,5,5,6,6,7,7,8,8,9,9,10,10,11,11,12,12,13,13,14,14,15,15,16,16,17,17,18,18,19,19,20,20,21,21,22,22,23,23,24,24,25,25,26,26,27,27,28,28,30,30,41,41,42,42,44,44,46,46,47,47,48,48,67,67,68,68,69,69,71,71,74,74,75,75,77,77,78,78,81,81,83,83,88,88],"right_children":[2,4,6,8,10,12,14,16,18,20,22,24,26,28,30,32,34,36,38,40,42,44,46,48,50,52,54,56,58,-1,60,-1,-1,-1,-1,-1,-1,-1,-1,-1,-1,62,64,-1,66,-1,68,70,72,-1,-1,-1,-1,-1,-1,-1,-1,-1,-1,-1,-1,-1,-1,-1,-1,-1,-1,74,76,78,-1,80,-1,-1,82,84,-1,86,88,-1,-1,90,-1,92,-1,-1,-1,-1,94,-1,-1,-1,-1,-1,-1],"split_conditions":[8.30648E-3,4.295342E-3,1.2012089E-2,2.023452E-3,6.318138E-3,1.0636484E-2,1.414893E-2,9.78073E-4,3.124675E-3,5.227614E-3,7.196909E-3,9.578593E-3,1.1152043E-2,1.3143161E-2,1.5014148E-2,2.47148E-4,1.56395E-3,2.662358E-3,3.694348E-3,4.701878E-3,5.877555E-3,6.825678E-3,7.5871E-3,8.85646E-3,1.0071595E-2,1.0892816E-2,1.1762549E-2,1.272054E-2,1.381534E-2,2.514059E0,1.6168602E-2,-3.486979E0,-3.096845E0,-2.8471332E0,-2.5951357E0,-2.4001968E0,-2.1449142E0,-1.9425815E0,-1.7080119E0,-1.517507E0,-1.2978305E0,5.598762E-3,6.075866E-3,-6.556856E-1,7.0133E-3,-3.443136E-1,8.074021E-3,8.712294E-3,9.341282E-3,6.0239047E-1,8.1135035E-1,9.384963E-1,1.1373558E0,1.3728667E0,1.5405002E0,1.6798538E0,1.8652862E0,2.0878353E0,2.3149014E0,2.8818936E0,3.345705E0,-1.1017505E0,-9.76402E-1,-9.119463E-1,-8.035272E-1,-5.564623E-1,-4.728864E-1,7.819498E-3,8.242216E-3,8.457099E-3,2.0735624E-1,9.034992E-3,4.6493807E-1,-1.5932116E-1,8.01755E-3,8.181664E-3,1.4059049E-2,8.395841E-3,8.556246E-3,2.8316972E-1,3.4623557E-1,7.891383E-3,-8.185706E-2,8.128059E-3,-8.263298E-2,1.2670694E-1,2.0709245E-1,2.3447316E-2,8.636366E-3,-8.620969E-2,-1.268573E-1,-3.3732112E-2,1.556497E-2,1.212666E-1,7.487813E-2],"split_indices":[0,0,0,0,0,0,0,0,0,0,0,0,0,0,0,0,0,0,0,0,0,0,0,0,0,0,0,0,0,0,0,0,0,0,0,0,0,0,0,0,0,0,0,0,0,0,0,0,0,0,0,0,0,0,0,0,0,0,0,0,0,0,0,0,0,0,0,0,0,0,0,0,0,0,0,0,0,0,0,0,0,0,0,0,0,0,0,0,0,0,0,0,0,0,0],"split_type":[0,0,0,0,0,0,0,0,0,0,0,0,0,0,0,0,0,0,0,0,0,0,0,0,0,0,0,0,0,0,0,0,0,0,0,0,0,0,0,0,0,0,0,0,0,0,0,0,0,0,0,0,0,0,0,0,0,0,0,0,0,0,0,0,0,0,0,0,0,0,0,0,0,0,0,0,0,0,0,0,0,0,0,0,0,0,0,0,0,0,0,0,0,0,0],"sum_hessian":[9.578E3,4.845E3,4.733E3,2.428E3,2.417E3,2.12E3,2.613E3,1.128E3,1.3E3,1.192E3,1.225E3,1.298E3,8.22E2,1.258E3,1.355E3,5.14E2,6.14E2,6.28E2,6.72E2,5.66E2,6.26E2,5.4E2,6.85E2,6.83E2,6.15E2,2.99E2,5.23E2,6.67E2,5.91E2,4.95E2,8.6E2,1.49E2,3.65E2,3.58E2,2.56E2,3.6E2,2.68E2,3.3E2,3.42E2,2.7E2,2.96E2,3.55E2,2.71E2,3.14E2,2.26E2,2.32E2,4.53E2,2.6E2,4.23E2,2.65E2,3.5E2,1.48E2,1.51E2,3.66E2,1.57E2,4.07E2,2.6E2,4.12E2,1.79E2,6.79E2,1.81E2,2.22E2,1.33E2,1.16E2,1.55E2,1.13E2,1.13E2,3.03E2,1.5E2,1.87E2,7.3E1,3.03E2,1.2E2,1.48E2,1.55E2,1.09E2,4.1E1,7.1E1,1.16E2,1.21E2,1.82E2,1.18E2,3.7E1,7.3E1,3.6E1,3.5E1,3.6E1,3.6E1,8E1,4.1E1,7.7E1,3.6E1,3.7E1,4.2E1,3.8E1],"tree_param":{"num_deleted":"0","num_feature":"1","num_nodes":"95","size_leaf_vector":"1"}},{"base_weights":[-2.8610477E-2,-1.4574909E1,1.5493322E1,-2.2811415E1,-7.1424646E0,7.8929186E0,2.2146643E1,-2.7115696E1,-1.9350443E1,-1.1527751E1,-3.7656784E0,4.8588233E0,1.2213602E1,1.8238857E1,2.5347248E1,-3.0462873E0,-2.5943535E1,-2.1372406E1,-1.7105219E1,-1.3013385E1,-9.487688E0,-5.947573E0,-1.8572835E0,2.6296005E0,6.795261E0,1.0144411E1,1.3409001E1,1.6426419E0,1.9453377E1,2.3493025E1,2.8196465E1,-2.6706393E0,-2.4323905E0,-2.2194173E0,-1.9976631E0,-1.7975215E0,-1.5852621E0,-1.384445E0,-1.1829773E0,-1.0037788E0,-8.151334E-1,-6.7685956E-1,-4.91125E0,-3.3684711E0,-9.730285E-1,1.3800578E0,3.3864415E0,5.97939E0,7.782012E-1,8.828568E-1,1.107936E0,1.2448212E0,1.4186018E0,1.8420521E0,2.043966E0,2.26632E0,2.4610088E0,2.721415E0,3.1487615E0,-5.311809E-1,-4.638741E-1,-3.497357E-1,-2.3961294E-1,-1.3821532E0,-4.6806782E-2,9.418129E-1,1.8138066E-1,2.8860185E-1,4.1025934E-1,5.3802717E-1,6.2100387E-1,-1.6925858E0,-9.8816097E-1,-3.2859307E-2,4.270518E-2,7.757656E-2,1.2296063E-1,-2.0255342E-1,-1.6021879E0,-7.344733E-2,-1.2388605E0,8.190379E-3,-4.776679E-3,-1.18536845E-1,-1.7274338E-1,-1.5997921E-1,-8.358291E-2],"categories":[],"categories_nodes":[],"categories_segments":[],"categories_sizes":[],"default_left":[0,0,0,0,0,0,0,0,0,0,0,0,0,0,0,0,0,0,0,0,0,0,0,0,0,0,0,0,0,0,0,0,0,0,0,0,0,0,0,0,0,0,0,0,0,0,0,0,0,0,0,0,0,0,0,0,0,0,0,0,0,0,0,0,0,0,0,0,0,0,0,0,0,0,0,0,0,0,0,0,0,0,0,0,0,0,0],"id":17,"left_children":[1,3,5,7,9,11,13,15,17,19,21,23,25,27,29,-1,31,33,35,37,39,41,43,45,47,49,51,-1,53,55,57,-1,-1,-1,-1,-1,-1,-1,-1,-1,-1,-1,59,61,63,65,67,69,-1,-1,-1,-1,-1,-1,-1,-1,-1,-1,-1,-1,-1,-1,-1,71,73,75,-1,-1,-1,-1,-1,77,79,-1,81,-1,-1,-1,83,-1,85,-1,-1,-1,-1,-1,-1],"loss_changes":[2.1571662E6,3.0176112E5,2.3355012E5,3.4319375E4,3.8369E4,2.8243781E4,3.0355625E4,3.2900625E3,5.5360938E3,3.29525E3,6.097422E3,5.4644043E3,2.0653906E3,2.1304375E3,6.48025E3,0E0,3.1040625E2,3.365625E2,3.9179688E2,4.7560938E2,2.703047E2,5.487363E2,1.0443623E3,5.5518384E2,5.0010547E2,3.0816797E2,2.4222656E2,0E0,2.968125E2,2.0703125E2,8.500625E2,0E0,0E0,0E0,0E0,0E0,0E0,0E0,0E0,0E0,0E0,0E0,8.761719E0,2.7837646E1,1.8788962E2,4.1061584E1,1.2004346E2,1.8544922E1,0E0,0E0,0E0,0E0,0E0,0E0,0E0,0E0,0E0,0E0,0E0,0E0,0E0,0E0,0E0,4.040143E1,3.8731887E0,4.493866E0,0E0,0E0,0E0,0E0,0E0,2.503357E0,8.884384E0,0E0,4.1883814E-1,0E0,0E0,0E0,6.044159E0,0E0,9.718315E0,0E0,0E0,0E0,0E0,0E0,0E0],"parents":[2147483647,0,0,1,1,2,2,3,3,4,4,5,5,6,6,7,7,8,8,9,9,10,10,11,11,12,12,13,13,14,14,16,16,17,17,18,18,19,19,20,20,21,21,22,22,23,23,24,24,25,25,26,26,28,28,29,29,30,30,42,42,43,43,44,44,45,45,46,46,47,47,63,63,64,64,65,65,71,71,72,72,74,74,78,78,80,80],"right_children":[2,4,6,8,10,12,14,16,18,20,22,24,26,28,30,-1,32,34,36,38,40,42,44,46,48,50,52,-1,54,56,58,-1,-1,-1,-1,-1,-1,-1,-1,-1,-1,-1,60,62,64,66,68,70,-1,-1,-1,-1,-1,-1,-1,-1,-1,-1,-1,-1,-1,-1,-1,72,74,76,-1,-1,-1,-1,-1,78,80,-1,82,-1,-1,-1,84,-1,86,-1,-1,-1,-1,-1,-1],"split_conditions":[8.457099E-3,4.088141E-3,1.2273652E-2,1.808355E-3,6.004845E-3,1.0758302E-2,1.414893E-2,4.75328E-4,2.976674E-3,5.155666E-3,7.123913E-3,9.578593E-3,1.1325587E-2,1.3017239E-2,1.5574796E-2,-3.0462873E0,1.402404E-3,2.564794E-3,3.630411E-3,4.701878E-3,5.751227E-3,6.619059E-3,7.639142E-3,8.909965E-3,1.0254182E-2,1.1015484E-2,1.1762549E-2,1.6426419E0,1.3607742E-2,1.5014148E-2,1.6321365E-2,-2.6706393E0,-2.4323905E0,-2.2194173E0,-1.9976631E0,-1.7975215E0,-1.5852621E0,-1.384445E0,-1.1829773E0,-1.0037788E0,-8.151334E-1,-6.7685956E-1,6.825678E-3,7.5871E-3,8.181664E-3,8.712294E-3,9.277062E-3,9.786788E-3,7.782012E-1,8.828568E-1,1.107936E0,1.2448212E0,1.4186018E0,1.8420521E0,2.043966E0,2.26632E0,2.4610088E0,2.721415E0,3.1487615E0,-5.311809E-1,-4.638741E-1,-3.497357E-1,-2.3961294E-1,7.95394E-3,8.242216E-3,8.636366E-3,1.8138066E-1,2.8860185E-1,4.1025934E-1,5.3802717E-1,6.2100387E-1,7.692156E-3,8.074021E-3,-3.2859307E-2,8.395841E-3,7.757656E-2,1.2296063E-1,-2.0255342E-1,7.755615E-3,-7.344733E-2,8.128059E-3,8.190379E-3,-4.776679E-3,-1.18536845E-1,-1.7274338E-1,-1.5997921E-1,-8.358291E-2],"split_indices":[0,0,0,0,0,0,0,0,0,0,0,0,0,0,0,0,0,0,0,0,0,0,0,0,0,0,0,0,0,0,0,0,0,0,0,0,0,0,0,0,0,0,0,0,0,0,0,0,0,0,0,0,0,0,0,0,0,0,0,0,0,0,0,0,0,0,0,0,0,0,0,0,0,0,0,0,0,0,0,0,0,0,0,0,0,0,0],"split_type":[0,0,0,0,0,0,0,0,0,0,0,0,0,0,0,0,0,0,0,0,0,0,0,0,0,0,0,0,0,0,0,0,0,0,0,0,0,0,0,0,0,0,0,0,0,0,0,0,0,0,0,0,0,0,0,0,0,0,0,0,0,0,0,0,0,0,0,0,0,0,0,0,0,0,0,0,0,0,0,0,0,0,0,0,0,0,0],"sum_hessian":[9.552E3,4.931E3,4.621E3,2.338E3,2.593E3,2.158E3,2.463E3,1.039E3,1.299E3,1.127E3,1.466E3,1.269E3,8.89E2,1.112E3,1.351E3,2.63E2,7.76E2,6.79E2,6.2E2,6.49E2,4.78E2,6.83E2,7.83E2,5.91E2,6.78E2,3.29E2,5.6E2,4.52E2,6.6E2,8.24E2,5.27E2,5.17E2,2.59E2,4.18E2,2.61E2,3.58E2,2.62E2,3.75E2,2.74E2,3.34E2,1.44E2,3.78E2,3.05E2,2.88E2,4.95E2,2.24E2,3.67E2,3.75E2,3.03E2,1.41E2,1.88E2,2.58E2,3.02E2,3.32E2,3.28E2,4.85E2,3.39E2,4.13E2,1.14E2,1.16E2,1.89E2,2.52E2,3.6E1,3.43E2,1.52E2,1.13E2,1.11E2,2.19E2,1.48E2,1.11E2,2.64E2,1.9E2,1.53E2,3.6E1,1.16E2,7.4E1,3.9E1,3.6E1,1.54E2,7.8E1,7.5E1,8.1E1,3.5E1,3.8E1,1.16E2,3.8E1,3.7E1],"tree_param":{"num_deleted":"0","num_feature":"1","num_nodes":"87","size_leaf_vector":"1"}},{"base_weights":[-9.502042E-2,-1.3242285E1,1.38068905E1,-2.0707289E1,-6.62403E0,7.4151254E0,2.0294065E1,-2.4353365E1,-1.7582182E1,-1.0392591E1,-3.3194869E0,3.9675183E0,1.1166028E1,1.751041E1,2.3869137E1,-2.6573633E1,-2.2935708E0,-1.9215092E1,-1.5527241E1,-1.1881688E1,-8.384626E0,-5.0496154E0,-1.2081349E0,1.9873838E0,5.656708E0,9.088771E0,1.2314867E1,1.5830101E0,1.9021173E1,2.272379E0,2.6538405E0,-2.8853521E0,-2.5650725E0,-1.9970007E0,-1.7978534E0,-1.6314758E0,-1.4779843E0,-1.3008977E0,-1.0994644E0,-9.0939105E-1,-7.426102E-1,-5.9425044E0,-4.1296244E0,-2.1083298E0,-3.956966E-1,9.473045E-1,2.5200844E0,4.4236727E0,6.438477E0,7.88771E-1,9.727959E-1,1.1440204E0,1.2887691E0,1.7657006E0,1.9532547E0,-6.2680525E-1,-5.4084927E-1,-4.720717E-1,-3.6909378E-1,-2.7193022E-1,-1.6995099E0,-8.6287373E-1,-1.4756824E-1,1.290061E-1,8.5052824E-1,1.9772504E-1,2.7251143E0,4.169495E-1,5.0742054E-1,5.921248E-1,7.012552E-1,-1.871861E-1,-1.5566523E-1,-1.0782442E-1,-7.52479E-2,-2.68902E-1,1.16274156E-1,4.971821E-2,9.532449E-2,2.5475782E-1,2.947269E-1,-1.1106859E-1,-7.521977E-2,5.408251E-3,1.8053347E-2,-1.7246384E-2,-7.852985E-2,-7.020649E-4,-1.4450035E-2],"categories":[],"categories_nodes":[],"categories_segments":[],"categories_sizes":[],"default_left":[0,0,0,0,0,0,0,0,0,0,0,0,0,0,0,0,0,0,0,0,0,0,0,0,0,0,0,0,0,0,0,0,0,0,0,0,0,0,0,0,0,0,0,0,0,0,0,0,0,0,0,0,0,0,0,0,0,0,0,0,0,0,0,0,0,0,0,0,0,0,0,0,0,0,0,0,0,0,0,0,0,0,0,0,0,0,0,0,0],"id":18,"left_children":[1,3,5,7,9,11,13,15,17,19,21,23,25,27,29,31,-1,33,35,37,39,41,43,45,47,49,51,-1,53,-1,-1,-1,-1,-1,-1,-1,-1,-1,-1,-1,-1,55,57,59,61,63,65,67,69,-1,-1,-1,-1,-1,-1,-1,-1,-1,-1,-1,71,73,75,-1,77,-1,79,-1,-1,-1,-1,-1,-1,-1,-1,81,83,-1,-1,-1,-1,85,-1,-1,-1,-1,87,-1,-1],"loss_changes":[1.7688684E6,2.4560481E5,1.9489856E5,2.62005E4,3.2817492E4,3.0616602E4,2.2809438E4,2.7773125E3,3.9363125E3,3.584125E3,5.133543E3,4.1263027E3,2.5966875E3,3.039625E3,2.51225E3,1.28875E2,0E0,2.9348438E2,9.0828125E1,5.619453E2,2.914336E2,6.1043945E2,4.6357483E2,3.139756E2,6.1447266E2,2.3648828E2,2.1730469E2,0E0,1.3504688E2,0E0,0E0,0E0,0E0,0E0,0E0,0E0,0E0,0E0,0E0,0E0,0E0,3.3901367E1,8.2148926E1,7.056152E1,3.8705833E1,5.371048E0,3.6571045E1,2.216504E1,7.90293E1,0E0,0E0,0E0,0E0,0E0,0E0,0E0,0E0,0E0,0E0,0E0,1.591919E0,1.9466324E0,7.074125E0,0E0,5.151718E0,0E0,3.1799316E0,0E0,0E0,0E0,0E0,0E0,0E0,0E0,0E0,1.1434766E1,2.6998383E-1,0E0,0E0,0E0,0E0,2.1619475E-1,0E0,0E0,0E0,0E0,3.6223283E-1,0E0,0E0],"parents":[2147483647,0,0,1,1,2,2,3,3,4,4,5,5,6,6,7,7,8,8,9,9,10,10,11,11,12,12,13,13,14,14,15,15,17,17,18,18,19,19,20,20,21,21,22,22,23,23,24,24,25,25,26,26,28,28,41,41,42,42,43,43,44,44,45,45,46,46,47,47,48,48,60,60,61,61,62,62,64,64,66,66,75,75,76,76,81,81,86,86],"right_children":[2,4,6,8,10,12,14,16,18,20,22,24,26,28,30,32,-1,34,36,38,40,42,44,46,48,50,52,-1,54,-1,-1,-1,-1,-1,-1,-1,-1,-1,-1,-1,-1,56,58,60,62,64,66,68,70,-1,-1,-1,-1,-1,-1,-1,-1,-1,-1,-1,72,74,76,-1,78,-1,80,-1,-1,-1,-1,-1,-1,-1,-1,82,84,-1,-1,-1,-1,86,-1,-1,-1,-1,88,-1,-1],"split_conditions":[8.395841E-3,3.957266E-3,1.2548727E-2,1.808355E-3,6.075866E-3,1.0636484E-2,1.4731528E-2,7.75029E-4,2.976674E-3,5.155666E-3,7.325374E-3,9.409663E-3,1.1325587E-2,1.3607742E-2,1.5917238E-2,1.8586E-4,-2.2935708E0,2.564794E-3,3.436783E-3,4.467035E-3,5.68122E-3,6.69173E-3,7.819498E-3,